tree
version=v4
num_class=1
num_tree_per_iteration=1
label_index=0
max_feature_idx=431
objective=binary sigmoid:1
feature_names=TransactionDT TransactionAmt ProductCD card1 card2 card3 card4 card5 card6 addr1 addr2 dist1 dist2 P_emaildomain R_emaildomain C1 C2 C3 C4 C5 C6 C7 C8 C9 C10 C11 C12 C13 C14 D1 D2 D3 D4 D5 D6 D7 D8 D9 D10 D11 D12 D13 D14 D15 M1 M2 M3 M4 M5 M6 M7 M8 M9 V1 V2 V3 V4 V5 V6 V7 V8 V9 V10 V11 V12 V13 V14 V15 V16 V17 V18 V19 V20 V21 V22 V23 V24 V25 V26 V27 V28 V29 V30 V31 V32 V33 V34 V35 V36 V37 V38 V39 V40 V41 V42 V43 V44 V45 V46 V47 V48 V49 V50 V51 V52 V53 V54 V55 V56 V57 V58 V59 V60 V61 V62 V63 V64 V65 V66 V67 V68 V69 V70 V71 V72 V73 V74 V75 V76 V77 V78 V79 V80 V81 V82 V83 V84 V85 V86 V87 V88 V89 V90 V91 V92 V93 V94 V95 V96 V97 V98 V99 V100 V101 V102 V103 V104 V105 V106 V107 V108 V109 V110 V111 V112 V113 V114 V115 V116 V117 V118 V119 V120 V121 V122 V123 V124 V125 V126 V127 V128 V129 V130 V131 V132 V133 V134 V135 V136 V137 V138 V139 V140 V141 V142 V143 V144 V145 V146 V147 V148 V149 V150 V151 V152 V153 V154 V155 V156 V157 V158 V159 V160 V161 V162 V163 V164 V165 V166 V167 V168 V169 V170 V171 V172 V173 V174 V175 V176 V177 V178 V179 V180 V181 V182 V183 V184 V185 V186 V187 V188 V189 V190 V191 V192 V193 V194 V195 V196 V197 V198 V199 V200 V201 V202 V203 V204 V205 V206 V207 V208 V209 V210 V211 V212 V213 V214 V215 V216 V217 V218 V219 V220 V221 V222 V223 V224 V225 V226 V227 V228 V229 V230 V231 V232 V233 V234 V235 V236 V237 V238 V239 V240 V241 V242 V243 V244 V245 V246 V247 V248 V249 V250 V251 V252 V253 V254 V255 V256 V257 V258 V259 V260 V261 V262 V263 V264 V265 V266 V267 V268 V269 V270 V271 V272 V273 V274 V275 V276 V277 V278 V279 V280 V281 V282 V283 V284 V285 V286 V287 V288 V289 V290 V291 V292 V293 V294 V295 V296 V297 V298 V299 V300 V301 V302 V303 V304 V305 V306 V307 V308 V309 V310 V311 V312 V313 V314 V315 V316 V317 V318 V319 V320 V321 V322 V323 V324 V325 V326 V327 V328 V329 V330 V331 V332 V333 V334 V335 V336 V337 V338 V339 id_01 id_02 id_03 id_04 id_05 id_06 id_07 id_08 id_09 id_10 id_11 id_12 id_13 id_14 id_15 id_16 id_17 id_18 id_19 id_20 id_21 id_22 id_23 id_24 id_25 id_26 id_27 id_28 id_29 id_30 id_31 id_32 id_33 id_34 id_35 id_36 id_37 id_38 DeviceType DeviceInfo
feature_infos=[86522:15811088] [0.251:5420] [0:4] [1004:18395] [100:600] [100:231] [0:4] [100:237] [0:4] [100:540] [10:102] [0:10286] [0:11623] [0:59] [0:60] [0:4681] [0:5690] [0:26] [0:2249] [0:333] [0:2249] [0:2251] [0:3327] [0:210] [0:3253] [0:3184] [0:3184] [0:2913] [0:1424] [0:640] [0:640] [0:784] [-122:855] [0:757] [-83:866] [0:843] [0:1707.7916259765625] [0:0.95833301544189442] [0:876] [-29:668] [-83:648] [0:815] [-193:867] [-83:876] [0:2] [0:2] [0:2] [0:3] [0:2] [0:2] [0:2] [0:2] [0:2] [0:1] [0:8] [0:9] [0:6] [0:6] [0:9] [0:9] [0:8] [0:8] [0:4] [0:4] [0:3] [0:5] [0:1] [0:7] [0:14] [0:14] [0:14] [0:7] [0:14] [0:5] [0:8] [0:12] [0:12] [0:4] [0:13] [0:4] [0:4] [0:4] [0:9] [0:7] [0:14] [0:4] [0:13] [0:3] [0:4] [0:52] [0:52] [0:15] [0:24] [0:1] [0:6] [0:7] [0:46] [0:46] [0:6] [0:12] [0:4] [0:5] [0:4] [0:6] [0:12] [0:5] [0:6] [0:14] [0:51] [0:5] [0:10] [0:16] [0:16] [0:6] [0:10] [0:7] [0:7] [0:1] [0:6] [0:8] [0:2] [0:4] [0:5] [0:5] [0:10] [0:6] [0:8] [0:3] [0:6] [0:30] [0:31] [0:7] [0:19] [0:19] [0:7] [0:7] [0:7] [0:7] [0:30] [0:30] [0:1] [0:2] [0:4] [0:6] [0:7] [0:7] [0:2] [0:877] [0:1410] [0:975] [0:9] [0:86] [0:28] [0:866] [0:1285] [0:927] [0:15] [0:99] [0:54] [0:1] [0:7] [0:7] [0:7] [0:9] [0:9] [0:9] [0:6] [0:6] [0:6] [0:2] [0:2] [0:2] [0:3] [0:3] [0:3] [0:11] [0:11] [0:11] [0:160000] [0:160000] [0:160000] [0:12307.5] [0:30250] [0:12307.5] [0:93418] [0:133915] [0:98420] [0:90750] [0:90750] [0:90750] [0:22] [0:31] [0:31] [0:5] [0:9] [0:866] [0:62] [0:297] [0:24] [0:26] [0:20] [0:20] [1:3388] [1:57] [1:69] [0:18] [0:18] [0:24] [0:24] [0:24] [0:24] [0:43986.9296875] [0:641411.4375] [0:3000] [0:3000] [0:3000] [0:93418] [0:98420] [0:101640] [0:869] [0:963] [0:18] [0:46] [0:61] [0:31] [0:6] [0:8] [0:13] [0:48] [0:858] [0:1235] [0:919] [0:83] [0:24] [0:83] [0:40] [0:16] [0:31] [0:38] [0:218] [0:30] [0:30] [0:40] [0:21] [0:44] [0:37] [0:6] [0:16] [0:38] [0:14] [0:21] [0:43] [0:43] [0:55] [0:101640] [0:139762] [0:102331] [0:12307.5] [0:12307.5] [0:25525] [0:3100] [0:8050] [0:3100] [0:92570] [0:129006] [0:97572] [0:101640] [0:101640] [0:101640] [0:299] [0:398] [0:376] [0:25] [0:225] [0:225] [0:16] [0:144] [0:51] [0:242] [0:213] [0:52] [1:176] [0:64] [0:291] [0:335] [0:330] [0:120] [0:22] [0:45] [0:39] [0:22] [0:22] [1:6] [0:4] [0:19] [0:57] [0:20] [0:183] [0:43] [0:17] [1:36] [0:22] [0:17] [0:17] [0:23] [1:163] [0:60] [0:72] [0:74] [0:46] [0:65] [0:195] [0:7] [0:49] [0:20] [0:153600] [0:153600] [0:153600] [0:12307.5] [0:27000] [0:12307.5] [0:12307.5] [0:4000] [0:4000] [0:4000] [0:51200] [0:66000] [0:51200] [0:101640] [0:101640] [0:101640] [0:877] [0:974] [0:22] [0:31] [0:68] [0:9] [0:95] [0:8] [0:31] [0:10] [0:12] [1:66] [1:1040] [1:323] [0:866] [0:1286] [0:927] [0:93] [0:12] [0:93] [0:49] [0:11] [0:13] [0:16] [0:20] [0:16] none [0:108800] [0:145724] [0:108800] [0:12307.5] [0:30250] [0:12307.5] [0:12307.5] [0:4817.47021484375] [0:7519.8701171875] [0:4817.47021484375] [0:93418] [0:134021] [0:98420] [0:101640] [0:101640] [0:101640] [0:877] [0:1411] [0:975] [0:9] [0:44] [0:18] [0:15] [0:99] [0:54] [0:160000] [0:160000] [0:160000] [0:12307.5] [0:12307.5] [0:12307.5] [0:52030] [0:52030] [0:52030] [-100:0] [30:999074] [-11:7] [-13:0] [-72:52] [-100:0] [-37:52] [-100:0] [-36:16] [-100:0] [90:100] [0:2] [11:64] [-600:720] [0:3] [0:2] [100:228] [11:29] [100:670] [100:661] [101:854] [10:43] [0:3] [11:26] [100:545] [100:216] [0:2] [0:2] [0:2] [0:75] [0:129] [0:32] [0:260] [0:4] [0:2] [0:2] [0:2] [0:2] [0:2] [2:1785]

Tree=0
num_leaves=31
num_cat=0
split_feature=310 122 346 28 22 335 364 1 29 364 15 28 10 24 367 154 15 24 180 0 25 182 1 5 32 1 376 39 370 6
split_gain=869994 494467 295472 269469 147298 95403.3 47173.2 35542.7 30998.1 22030.5 21599.3 23031.4 20483.2 20146.3 24818.1 18794.1 16494.1 15012.7 14264.7 12598 11986.8 10161.9 9911.84 8188.67 7429.25 7397.78 6472.23 5965.13 5954.93 4504.96
threshold=1.5000000000000002 1.0000000180025095e-35 1.0000000180025095e-35 1.0000000180025095e-35 2.5000000000000004 1.5000000000000002 200.02529907226565 335.02500000000003 260.50000000000006 59.010400772094734 2.5000000000000004 1.0000000180025095e-35 84.000000000000014 3.5000000000000004 154.15740203857425 30.500000000000004 4.5000000000000009 1.5000000000000002 68.617851257324233 2587965.5000000005 1.5000000000000002 304.25000000000006 149.96000000000001 149.50000000000003 1.5000000000000002 159.01250000000002 1.5000000000000002 131.50000000000003 299.97500610351568 3.5000000000000004
decision_type=10 10 8 2 2 8 10 2 10 10 2 2 10 2 10 10 2 2 10 2 2 10 2 10 10 2 10 10 10 2
left_child=1 2 3 12 5 7 18 -5 16 -7 11 26 -1 14 15 20 -6 22 25 -13 -4 -12 -14 -21 29 -3 -2 -8 -16 -20
right_child=10 6 13 4 8 9 27 -9 -10 -11 21 19 17 -15 28 -17 -18 -19 24 23 -22 -23 -24 -25 -26 -27 -28 -29 -30 -31
leaf_value=-2.5576814279522848 -2.5030018396730731 -3.2569467657615405 -2.8130998316811802 -3.1056908667577074 -2.8170404228797707 -2.9588185204686175 -2.7627491739975509 -2.8672807890458198 -3.2082744577272431 -2.74963555278394 -2.4811052564592311 -3.1032089633186453 -2.8766749887078897 -2.5332440135891852 -2.6962159836732322 -3.3481886966534047 -2.5566226453117125 -2.4801585954592626 -3.1799450896656585 -3.2741735101914466 -2.6987585879415845 -3.243502523564306 -2.7036500343606042 -2.6808990382463249 -3.1790543365550121 -3.1745093863185012 -2.8839793197382395 -3.1208584156752344 -2.5601297683153952 -2.9000894286750114
leaf_weight=914.79852107167244 649.05377807468176 4062.5941182672977 1683.9215506240726 8970.2101670652628 322.45896812528372 898.87142092734575 234.6096863001585 600.45905371010303 94.618913553655148 913.73157361894846 3417.1442930474877 97.946231059730053 521.17312780022621 564.50338405370712 453.06309279799461 49.127960242331028 681.52269814908504 174.43602953106165 68.850857548415661 22.357798971235752 1618.0472152978182 15.80740427225828 695.77721403539181 329.82770371437073 337.54924030601978 1291.0441489070654 42.777679435908794 50.955449350178242 801.09815774857998 208.65274272114038
leaf_count=3862 1600 108412 20926 195787 4048 15378 2536 8507 2377 9492 6020 2130 7541 1940 3929 1455 2854 302 1667 609 14164 415 6200 2698 8163 31033 629 1137 3445 3176
internal_value=-2.90394 -2.97057 -2.89762 -2.96587 -3.02092 -3.05294 -3.20333 -3.09073 -2.68918 -2.85337 -2.52221 -2.63523 -2.66795 -2.7024 -2.72313 -2.76574 -2.64026 -2.74044 -3.22135 -2.80226 -2.75707 -2.48462 -2.77775 -2.71856 -3.08452 -3.23707 -2.52656 -2.82665 -2.60929 -2.96952
internal_weight=30787 26212.1 19957.8 14788.1 12481.9 11383.3 6254.26 9570.67 1098.6 1812.6 4574.91 1141.96 2306.18 5169.76 4605.26 3351.1 1003.98 1391.39 5968.69 450.132 3301.97 3432.95 1216.95 352.186 615.053 5353.64 691.831 285.565 1254.16 277.504
internal_count=472432 458331 302207 256348 238443 229164 156124 204294 9279 24870 14101 7666 17905 45859 43919 36545 6902 14043 152451 5437 35090 6435 13741 3307 13006 139445 2229 3673 7374 4843
is_linear=0
shrinkage=1


Tree=1
num_leaves=31
num_cat=0
split_feature=143 16 31 0 208 8 30 155 180 86 369 43 30 30 5 3 8 105 30 43 33 1 1 2 9 369 114 372 0 23
split_gain=255326 85544.6 59352.8 40924.9 46553.1 44247.2 25310.6 24767.8 22360.7 20625 17147.7 12124.3 9173.29 8862.07 8432.71 7960.76 7604.03 8270.23 7251.87 5924.63 5917.54 6261.87 5312.45 6842.4 5310.79 4556.95 3944.74 3718.26 3691.44 3355.4
threshold=1.0000000180025095e-35 3.5000000000000004 4.5000000000000009 2386228.0000000005 1.5000000000000002 1.5000000000000002 28.500000000000004 1.0000000180025095e-35 68.617851257324233 1.0000000180025095e-35 1.0000000180025095e-35 91.500000000000014 3.5000000000000004 32.500000000000007 149.50000000000003 15206.000000000002 1.5000000000000002 1.5000000000000002 258.50000000000006 27.500000000000004 1.5000000000000002 59.005000000000003 149.96000000000001 1.5000000000000002 327.50000000000006 36.436449050903327 1.5000000000000002 250.02999877929688 3605071.0000000005 16.500000000000004
decision_type=10 2 10 2 8 2 10 8 10 8 10 8 8 10 10 2 2 8 10 8 10 2 2 2 10 10 8 10 2 2
left_child=1 2 3 4 22 11 -3 9 20 -7 19 14 -10 -13 -5 18 -6 -18 24 -4 21 -2 -1 -24 29 -14 27 -21 -27 -8
right_child=8 6 10 5 16 7 15 -9 12 -11 -12 13 25 -15 -16 -17 17 -19 -20 26 -22 -23 23 -25 -26 28 -28 -29 -30 -31
leaf_value=0.039742053004153642 0.052697394580369213 0.37772929600963623 0.19793326535211783 0.12798540327176466 0.34265063655337114 0.19703361118491078 0.29175441445463546 0.34613994745479443 0.38431460675710322 0.29509011873969965 0.29108668304440893 0.32232422374034003 0.13364904700852909 0.13835792226984944 0.38898373943297493 0.11851895996060144 0.21298991672288434 0.42924902485117411 0.18456331752384492 0.079467985811826042 0.045230340746671205 0.14173647693080196 0.30998146590519005 0.082818310048627483 0.40256112107768194 -0.031531921753006918 0.27278931200277012 0.35536705104994931 0.3225216953247162 -0.031546624674246085
leaf_weight=1150.0953894555569 1203.5681160539389 10566.776505149901 638.19881263375282 114.03470513224602 1007.3046946115792 4929.4944839850068 1058.340175691992 2345.3377025313675 240.63443728536367 3173.3505710177124 622.42702084779739 2711.6782185509801 651.48390239849687 258.09938718751073 4845.1488733738661 281.00542944297194 1413.5040002651513 179.34478208050132 463.18847503885627 2074.795184366405 2966.5654946193099 1736.473085064441 171.88184032216668 390.3692182675004 481.87463275715709 29.933073882013559 106.06644058600068 44.914130009710789 231.30786500126123 29.702520586550236
leaf_count=23600 30115 20901 9397 1858 6695 70619 8710 11323 1525 27216 4519 19174 11659 4385 22172 4608 18005 338 7046 41925 73798 36578 1456 6816 2492 669 1411 450 2306 666
internal_value=0.264746 0.294758 0.263613 0.28132 0.198149 0.300838 0.35805 0.260286 0.0987162 0.235436 0.148369 0.354274 0.219539 0.306336 0.382982 0.268187 0.278137 0.237339 0.288873 0.117353 0.0751235 0.105286 0.0766884 0.152263 0.319649 0.176097 0.0942479 0.085314 0.281954 0.282929
internal_weight=46116.9 39056.9 26176 22689.6 4312.5 18377.1 12880.9 10448.2 7059.97 8102.85 3486.4 7928.96 1153.36 2969.78 4959.18 2314.11 2600.15 1592.85 2033.11 2863.97 5906.61 2940.04 1712.35 562.251 1569.92 912.725 2225.78 2119.71 261.241 1088.04
internal_count=472432 315782 271359 213657 56910 156747 44423 109158 156650 97835 57702 47589 16159 23559 24030 23522 25038 18343 18914 53183 140491 66693 31872 8272 11868 14634 43786 42375 2975 9376
is_linear=0
shrinkage=0.03


end of trees

parameters:
[boosting: gbdt]
[objective: binary]
[metric: average_precision,binary_logloss]
[tree_learner: serial]
[device_type: cpu]
[data_sample_strategy: bagging]
[data: ]
[valid: ]
[num_iterations: 2]
[learning_rate: 0.03]
[num_leaves: 31]
[num_threads: 1]
[seed: 42]
[deterministic: 0]
[force_col_wise: 0]
[force_row_wise: 0]
[histogram_pool_size: -1]
[max_depth: 7]
[min_data_in_leaf: 20]
[min_sum_hessian_in_leaf: 0.001]
[bagging_fraction: 0.8]
[pos_bagging_fraction: 1]
[neg_bagging_fraction: 1]
[bagging_freq: 0]
[bagging_seed: 400]
[bagging_by_query: 0]
[feature_fraction: 0.8]
[feature_fraction_bynode: 1]
[feature_fraction_seed: 30056]
[extra_trees: 0]
[extra_seed: 12879]
[early_stopping_round: 0]
[early_stopping_min_delta: 0]
[first_metric_only: 0]
[max_delta_step: 0]
[lambda_l1: 0]
[lambda_l2: 0]
[linear_lambda: 0]
[min_gain_to_split: 0]
[drop_rate: 0.1]
[max_drop: 50]
[skip_drop: 0.5]
[xgboost_dart_mode: 0]
[uniform_drop: 0]
[drop_seed: 17869]
[top_rate: 0.2]
[other_rate: 0.1]
[min_data_per_group: 100]
[max_cat_threshold: 32]
[cat_l2: 10]
[cat_smooth: 10]
[max_cat_to_onehot: 4]
[top_k: 20]
[monotone_constraints: ]
[monotone_constraints_method: basic]
[monotone_penalty: 0]
[feature_contri: ]
[forcedsplits_filename: ]
[refit_decay_rate: 0.9]
[cegb_tradeoff: 1]
[cegb_penalty_split: 0]
[cegb_penalty_feature_lazy: ]
[cegb_penalty_feature_coupled: ]
[path_smooth: 0]
[interaction_constraints: ]
[verbosity: -1]
[saved_feature_importance_type: 0]
[use_quantized_grad: 0]
[num_grad_quant_bins: 4]
[quant_train_renew_leaf: 0]
[stochastic_rounding: 1]
[linear_tree: 0]
[max_bin: 255]
[max_bin_by_feature: ]
[min_data_in_bin: 3]
[bin_construct_sample_cnt: 200000]
[data_random_seed: 175]
[is_enable_sparse: 1]
[enable_bundle: 1]
[use_missing: 1]
[zero_as_missing: 0]
[feature_pre_filter: 1]
[pre_partition: 0]
[two_round: 0]
[header: 0]
[label_column: ]
[weight_column: ]
[group_column: ]
[ignore_column: ]
[categorical_feature: ]
[forcedbins_filename: ]
[precise_float_parser: 0]
[parser_config_file: ]
[objective_seed: 16083]
[num_class: 1]
[is_unbalance: 0]
[scale_pos_weight: 27.5803]
[sigmoid: 1]
[boost_from_average: 1]
[reg_sqrt: 0]
[alpha: 0.9]
[fair_c: 1]
[poisson_max_delta_step: 0.7]
[tweedie_variance_power: 1.5]
[lambdarank_truncation_level: 30]
[lambdarank_norm: 1]
[label_gain: ]
[lambdarank_position_bias_regularization: 0]
[eval_at: ]
[multi_error_top_k: 1]
[auc_mu_weights: ]
[num_machines: 1]
[local_listen_port: 12400]
[time_out: 120]
[machine_list_filename: ]
[machines: ]
[gpu_platform_id: -1]
[gpu_device_id: -1]
[gpu_use_dp: 0]
[num_gpu: 1]

end of parameters

pandas_categorical:[]
