{"learner":{"attributes":{"best_iteration":"399","best_score":"0.7565108688081232","scikit_learn":"{\"_estimator_type\": \"classifier\"}"},"feature_names":["age_years","monthly_income","income_stability","salary_consistency","spending_ratio","savings_ratio","credit_income_ratio","goods_price_ratio","cash_flow_stability","ext_source_1","ext_source_2","ext_source_3","family_size","has_children","documents_provided","region_population_relative","region_rating","days_last_phone_change","enquiries_hour","enquiries_day","enquiries_week","enquiries_mon","enquiries_qrt","enquiries_year","occupation_type","income_type","organization_type","education_type","family_status","housing_type","contract_type"],"feature_types":["float","float","float","float","float","float","float","float","float","float","float","float","float","int","int","float","int","float","float","float","float","float","float","float","float","float","float","float","float","float","float"],"gradient_booster":{"model":{"cats":{"enc":[],"feature_segments":[],"sorted_idx":[]},"gbtree_model_param":{"num_parallel_tree":"1","num_trees":"450"},"iteration_indptr":[0,1,2,3,4,5,6,7,8,9,10,11,12,13,14,15,16,17,18,19,20,21,22,23,24,25,26,27,28,29,30,31,32,33,34,35,36,37,38,39,40,41,42,43,44,45,46,47,48,49,50,51,52,53,54,55,56,57,58,59,60,61,62,63,64,65,66,67,68,69,70,71,72,73,74,75,76,77,78,79,80,81,82,83,84,85,86,87,88,89,90,91,92,93,94,95,96,97,98,99,100,101,102,103,104,105,106,107,108,109,110,111,112,113,114,115,116,117,118,119,120,121,122,123,124,125,126,127,128,129,130,131,132,133,134,135,136,137,138,139,140,141,142,143,144,145,146,147,148,149,150,151,152,153,154,155,156,157,158,159,160,161,162,163,164,165,166,167,168,169,170,171,172,173,174,175,176,177,178,179,180,181,182,183,184,185,186,187,188,189,190,191,192,193,194,195,196,197,198,199,200,201,202,203,204,205,206,207,208,209,210,211,212,213,214,215,216,217,218,219,220,221,222,223,224,225,226,227,228,229,230,231,232,233,234,235,236,237,238,239,240,241,242,243,244,245,246,247,248,249,250,251,252,253,254,255,256,257,258,259,260,261,262,263,264,265,266,267,268,269,270,271,272,273,274,275,276,277,278,279,280,281,282,283,284,285,286,287,288,289,290,291,292,293,294,295,296,297,298,299,300,301,302,303,304,305,306,307,308,309,310,311,312,313,314,315,316,317,318,319,320,321,322,323,324,325,326,327,328,329,330,331,332,333,334,335,336,337,338,339,340,341,342,343,344,345,346,347,348,349,350,351,352,353,354,355,356,357,358,359,360,361,362,363,364,365,366,367,368,369,370,371,372,373,374,375,376,377,378,379,380,381,382,383,384,385,386,387,388,389,390,391,392,393,394,395,396,397,398,399,400,401,402,403,404,405,406,407,408,409,410,411,412,413,414,415,416,417,418,419,420,421,422,423,424,425,426,427,428,429,430,431,432,433,434,435,436,437,438,439,440,441,442,443,444,445,446,447,448,449,450],"tree_info":[0,0,0,0,0,0,0,0,0,0,0,0,0,0,0,0,0,0,0,0,0,0,0,0,0,0,0,0,0,0,0,0,0,0,0,0,0,0,0,0,0,0,0,0,0,0,0,0,0,0,0,0,0,0,0,0,0,0,0,0,0,0,0,0,0,0,0,0,0,0,0,0,0,0,0,0,0,0,0,0,0,0,0,0,0,0,0,0,0,0,0,0,0,0,0,0,0,0,0,0,0,0,0,0,0,0,0,0,0,0,0,0,0,0,0,0,0,0,0,0,0,0,0,0,0,0,0,0,0,0,0,0,0,0,0,0,0,0,0,0,0,0,0,0,0,0,0,0,0,0,0,0,0,0,0,0,0,0,0,0,0,0,0,0,0,0,0,0,0,0,0,0,0,0,0,0,0,0,0,0,0,0,0,0,0,0,0,0,0,0,0,0,0,0,0,0,0,0,0,0,0,0,0,0,0,0,0,0,0,0,0,0,0,0,0,0,0,0,0,0,0,0,0,0,0,0,0,0,0,0,0,0,0,0,0,0,0,0,0,0,0,0,0,0,0,0,0,0,0,0,0,0,0,0,0,0,0,0,0,0,0,0,0,0,0,0,0,0,0,0,0,0,0,0,0,0,0,0,0,0,0,0,0,0,0,0,0,0,0,0,0,0,0,0,0,0,0,0,0,0,0,0,0,0,0,0,0,0,0,0,0,0,0,0,0,0,0,0,0,0,0,0,0,0,0,0,0,0,0,0,0,0,0,0,0,0,0,0,0,0,0,0,0,0,0,0,0,0,0,0,0,0,0,0,0,0,0,0,0,0,0,0,0,0,0,0,0,0,0,0,0,0,0,0,0,0,0,0,0,0,0,0,0,0,0,0,0,0,0,0,0,0,0,0,0,0,0,0,0,0,0,0,0,0,0,0,0,0,0,0,0,0,0,0,0,0,0,0,0,0,0,0,0,0,0,0,0,0,0,0,0,0,0,0,0,0,0,0,0,0,0,0,0,0,0,0,0,0,0,0],"trees":[{"base_weights":[-1.0202982E-2,1.2088876E-1,-6.398873E-1,4.3380153E-1,-1.0194058E-1,-3.7177736E-1,-8.03354E-1,4.993893E-2,-1.2667687E-2,1.4855509E-2,-3.1476717E-2,-1.4557446E-2,-4.838789E-2,-2.9909728E-2,-7.6352045E-2],"categories":[],"categories_nodes":[],"categories_segments":[],"categories_sizes":[],"default_left":[1,0,0,0,0,0,0,0,0,0,0,0,0,0,0],"id":0,"left_children":[1,3,5,7,9,11,13,-1,-1,-1,-1,-1,-1,-1,-1],"loss_changes":[4.503714E3,3.1478726E3,4.0396948E2,1.443145E3,1.8192932E3,1.26060455E2,1.6178857E2,0E0,0E0,0E0,0E0,0E0,0E0,0E0,0E0],"parents":[2147483647,0,0,1,1,2,2,3,3,4,4,5,5,6,6],"right_children":[2,4,6,8,10,12,14,-1,-1,-1,-1,-1,-1,-1,-1],"split_conditions":[5.23847E-1,8.6326146E-1,6.362958E-1,5.43E1,4.01E1,3.7014875E-1,8.080129E-1,4.993893E-2,-1.2667687E-2,1.4855509E-2,-3.1476717E-2,-1.4557446E-2,-4.838789E-2,-2.9909728E-2,-7.6352045E-2],"split_indices":[9,7,9,0,0,3,7,0,0,0,0,0,0,0,0],"split_type":[0,0,0,0,0,0,0,0,0,0,0,0,0,0,0],"sum_hessian":[5.451625E4,4.5113285E4,9.402968E3,1.877673E4,2.6336553E4,3.577569E3,5.825399E3,1.5275838E4,3.5008933E3,1.277197E4,1.3564582E4,1.6699485E3,1.9076206E3,7.089962E2,5.116403E3],"tree_param":{"num_deleted":"0","num_feature":"31","num_nodes":"15","size_leaf_vector":"1"}},{"base_weights":[-7.258385E-3,3.7317133E-1,-5.589442E-1,9.337913E-1,3.5259962E-2,-0E0,-7.623267E-1,1.19384594E-1,6.55886E-2,5.8334988E-2,-1.4377951E-2,5.6464497E-2,-1.34089785E-2,-4.5734257E-2,-7.92165E-2],"categories":[],"categories_nodes":[],"categories_segments":[],"categories_sizes":[],"default_left":[1,0,0,0,0,0,0,0,0,0,0,0,0,0,0],"id":1,"left_children":[1,3,5,7,9,11,13,-1,-1,-1,-1,-1,-1,-1,-1],"loss_changes":[1.1491913E4,6.130506E3,2.5397197E3,9.568828E2,2.5172446E3,5.8063403E2,5.3455566E2,0E0,0E0,0E0,0E0,0E0,0E0,0E0,0E0],"parents":[2147483647,0,0,1,1,2,2,3,3,4,4,5,5,6,6],"right_children":[2,4,6,8,10,12,14,-1,-1,-1,-1,-1,-1,-1,-1],"split_conditions":[4.758499E-1,4.1228396E-1,4.0060464E-1,2.8078958E-1,2.636468E-1,1.258333E-1,5.7847035E-1,1.19384594E-1,6.55886E-2,5.8334988E-2,-1.4377951E-2,5.6464497E-2,-1.34089785E-2,-4.5734257E-2,-7.92165E-2],"split_indices":[11,10,10,11,11,10,10,0,0,0,0,0,0,0,0],"split_type":[0,0,0,0,0,0,0,0,0,0,0,0,0,0,0],"sum_hessian":[5.4749164E4,3.2396643E4,2.235252E4,1.2175727E4,2.0220918E4,5.965714E3,1.6386807E4,3.7711123E3,8.404614E3,4.8710103E3,1.5349907E4,1.1426843E3,4.8230293E3,5.904983E3,1.0481823E4],"tree_param":{"num_deleted":"0","num_feature":"31","num_nodes":"15","size_leaf_vector":"1"}},{"base_weights":[1.8943448E-3,4.6425658E-1,-3.5926205E-1,1.0334383E0,2.9729724E-1,-1.6569197E-1,-6.184364E-1,5.9895825E-2,1.0436636E-1,-4.7621867E-3,4.254089E-2,-5.616747E-3,-5.744683E-2,1.705298E-2,-5.8199473E-2],"categories":[],"categories_nodes":[],"categories_segments":[],"categories_sizes":[],"default_left":[0,0,1,0,0,1,0,0,0,0,0,0,0,0,0],"id":2,"left_children":[1,3,5,7,9,11,13,-1,-1,-1,-1,-1,-1,-1,-1],"loss_changes":[9.179799E3,2.282479E3,1.542468E3,2.7828516E2,1.2179543E3,8.712462E2,4.514912E2,0E0,0E0,0E0,0E0,0E0,0E0,0E0,0E0],"parents":[2147483647,0,0,1,1,2,2,3,3,4,4,5,5,6,6],"right_children":[2,4,6,8,10,12,14,-1,-1,-1,-1,-1,-1,-1,-1],"split_conditions":[4.88813E-1,1.5922496E-1,6.483805E-1,7.482316E-2,7.600145E-2,5.399231E-1,2.4809644E-1,5.9895825E-2,1.0436636E-1,-4.7621867E-3,4.254089E-2,-5.616747E-3,-5.744683E-2,1.705298E-2,-5.8199473E-2],"split_indices":[10,10,10,26,26,9,9,0,0,0,0,0,0,0,0],"split_type":[0,0,0,0,0,0,0,0,0,0,0,0,0,0,0],"sum_hessian":[5.4969418E4,2.4115398E4,3.085402E4,5.4600513E3,1.8655346E4,1.7677729E4,1.3176291E4,1.6446273E3,3.815424E3,6.430588E3,1.2224759E4,1.4624406E4,3.0533215E3,6.3851056E2,1.253778E4],"tree_param":{"num_deleted":"0","num_feature":"31","num_nodes":"15","size_leaf_vector":"1"}},{"base_weights":[-2.093214E-3,3.7593088E-1,-4.5561936E-1,8.6527044E-1,1.1045753E-1,-7.937575E-2,-6.943978E-1,1.0650825E-1,5.9853997E-2,5.449433E-2,-6.8694893E-3,1.912713E-2,-2.5206324E-2,-5.455579E-2,-9.028646E-2],"categories":[],"categories_nodes":[],"categories_segments":[],"categories_sizes":[],"default_left":[1,0,1,0,0,0,1,0,0,0,0,0,0,0,0],"id":3,"left_children":[1,3,5,7,9,11,13,-1,-1,-1,-1,-1,-1,-1,-1],"loss_changes":[9.356421E3,3.8585688E3,2.224122E3,6.549219E2,1.8501984E3,5.9120593E2,3.661045E2,0E0,0E0,0E0,0E0,0E0,0E0,0E0,0E0],"parents":[2147483647,0,0,1,1,2,2,3,3,4,4,5,5,6,6],"right_children":[2,4,6,8,10,12,14,-1,-1,-1,-1,-1,-1,-1,-1],"split_conditions":[4.3296167E-1,3.799448E-1,4.9146342E-1,2.881296E-1,2.636468E-1,5.726825E-1,5.886339E-1,1.0650825E-1,5.9853997E-2,5.449433E-2,-6.8694893E-3,1.912713E-2,-2.5206324E-2,-5.455579E-2,-9.028646E-2],"split_indices":[11,10,10,11,11,11,9,0,0,0,0,0,0,0,0],"split_type":[0,0,0,0,0,0,0,0,0,0,0,0,0,0,0],"sum_hessian":[5.457105E4,2.9754639E4,2.4816412E4,1.0455757E4,1.929888E4,9.646072E3,1.5170341E4,3.6640234E3,6.791734E3,5.232133E3,1.4066748E4,3.9484695E3,5.697602E3,1.2365844E4,2.8044973E3],"tree_param":{"num_deleted":"0","num_feature":"31","num_nodes":"15","size_leaf_vector":"1"}},{"base_weights":[-6.2227645E-3,3.1400618E-1,-4.699145E-1,5.393497E-1,-1.7574912E-1,-5.536533E-2,-6.2819576E-1,8.3601065E-2,3.2772258E-2,2.4876181E-2,-3.4635022E-2,-3.0144185E-2,2.2241678E-2,-6.828109E-2,-3.539278E-2],"categories":[],"categories_nodes":[],"categories_segments":[],"categories_sizes":[],"default_left":[1,0,1,0,0,0,0,0,0,0,0,0,0,0,0],"id":4,"left_children":[1,3,5,7,9,11,13,-1,-1,-1,-1,-1,-1,-1,-1],"loss_changes":[8.071413E3,3.549537E3,1.4526333E3,1.5003208E3,1.0074021E3,5.4304156E2,5.252124E2,0E0,0E0,0E0,0E0,0E0,0E0,0E0,0E0],"parents":[2147483647,0,0,1,1,2,2,3,3,4,4,5,5,6,6],"right_children":[2,4,6,8,10,12,14,-1,-1,-1,-1,-1,-1,-1,-1],"split_conditions":[4.6865967E-1,5.978753E-1,4.0060464E-1,2.692858E-1,3.1547216E-1,7.517773E-2,9.5033474E-2,8.3601065E-2,3.2772258E-2,2.4876181E-2,-3.4635022E-2,-3.0144185E-2,2.2241678E-2,-6.828109E-2,-3.539278E-2],"split_indices":[11,10,10,11,11,24,24,0,0,0,0,0,0,0,0],"split_type":[0,0,0,0,0,0,0,0,0,0,0,0,0,0,0],"sum_hessian":[5.4350254E4,3.2139527E4,2.2210725E4,2.202133E4,1.0118197E4,6.1492285E3,1.6061497E4,6.384364E3,1.5636967E4,3.244847E3,6.87335E3,3.195243E3,2.9539856E3,9.735987E3,6.3255103E3],"tree_param":{"num_deleted":"0","num_feature":"31","num_nodes":"15","size_leaf_vector":"1"}},{"base_weights":[-2.4574762E-4,3.237009E-1,-3.105262E-1,6.9664836E-1,1.7452055E-1,3.7474403E-1,-3.7141377E-1,7.3806696E-2,2.560027E-2,3.701694E-2,-5.058898E-4,7.766452E-2,2.048233E-2,-2.2373201E-2,-5.852323E-2],"categories":[],"categories_nodes":[],"categories_segments":[],"categories_sizes":[],"default_left":[1,0,0,0,0,0,0,0,0,0,0,0,0,0,0],"id":5,"left_children":[1,3,5,7,9,11,13,-1,-1,-1,-1,-1,-1,-1,-1],"loss_changes":[5.4643677E3,1.4731111E3,1.1590457E3,4.2576318E2,8.437528E2,1.5504199E2,8.715674E2,0E0,0E0,0E0,0E0,0E0,0E0,0E0,0E0],"parents":[2147483647,0,0,1,1,2,2,3,3,4,4,5,5,6,6],"right_children":[2,4,6,8,10,12,14,-1,-1,-1,-1,-1,-1,-1,-1],"split_conditions":[5.1613456E-1,2.0468087E-1,2.7710932E-1,4.95E1,8.6326146E-1,1.3717948E-1,6.88098E-1,7.3806696E-2,2.560027E-2,3.701694E-2,-5.058898E-4,7.766452E-2,2.048233E-2,-2.2373201E-2,-5.852323E-2],"split_indices":[10,10,9,0,7,9,10,0,0,0,0,0,0,0,0],"split_type":[0,0,0,0,0,0,0,0,0,0,0,0,0,0,0],"sum_hessian":[5.4364984E4,2.6585854E4,2.7779129E4,7.5827485E3,1.9003105E4,2.2575396E3,2.552159E4,5.618516E3,1.9642325E3,8.0623096E3,1.0940795E4,4.8464688E2,1.7728927E3,1.822319E4,7.2984014E3],"tree_param":{"num_deleted":"0","num_feature":"31","num_nodes":"15","size_leaf_vector":"1"}},{"base_weights":[-6.405052E-3,2.5505555E-1,-4.7317493E-1,6.4577323E-1,4.7680978E-2,1.4046019E-2,-5.915493E-1,6.449604E-2,1.717254E-2,3.8926046E-2,-1.1587737E-2,-2.1981495E-2,2.689972E-2,-6.354145E-2,-3.487181E-2],"categories":[],"categories_nodes":[],"categories_segments":[],"categories_sizes":[],"default_left":[1,0,0,1,0,0,0,0,0,0,0,0,0,0,0],"id":6,"left_children":[1,3,5,7,9,11,13,-1,-1,-1,-1,-1,-1,-1,-1],"loss_changes":[6.5949917E3,2.8002395E3,1.1232798E3,4.586631E2,1.5992852E3,2.904894E2,3.8832812E2,0E0,0E0,0E0,0E0,0E0,0E0,0E0,0E0],"parents":[2147483647,0,0,1,1,2,2,3,3,4,4,5,5,6,6],"right_children":[2,4,6,8,10,12,14,-1,-1,-1,-1,-1,-1,-1,-1],"split_conditions":[5.064842E-1,3.799448E-1,3.105271E-1,3.8806075E-1,3.1547216E-1,7.8216806E-2,9.5033474E-2,6.449604E-2,1.717254E-2,3.8926046E-2,-1.1587737E-2,-2.1981495E-2,2.689972E-2,-6.354145E-2,-3.487181E-2],"split_indices":[11,10,10,9,11,24,24,0,0,0,0,0,0,0,0],"split_type":[0,0,0,0,0,0,0,0,0,0,0,0,0,0,0],"sum_hessian":[5.4026363E4,3.4619477E4,1.9406889E4,1.1991922E4,2.2627553E4,3.78199E3,1.5624899E4,1.00581875E4,1.933734E3,7.085245E3,1.5542308E4,1.9729948E3,1.8089952E3,9.388093E3,6.2368066E3],"tree_param":{"num_deleted":"0","num_feature":"31","num_nodes":"15","size_leaf_vector":"1"}},{"base_weights":[5.513571E-4,2.8982797E-1,-3.6259058E-1,5.023632E-1,-3.546149E-2,-7.792572E-2,-5.6281805E-1,7.691679E-2,3.3838708E-2,4.245218E-2,-1.660293E-2,-2.7043829E-2,1.5070632E-2,-3.2537535E-2,-6.1603125E-2],"categories":[],"categories_nodes":[],"categories_segments":[],"categories_sizes":[],"default_left":[1,0,1,0,0,0,0,0,0,0,0,0,0,0,0],"id":7,"left_children":[1,3,5,7,9,11,13,-1,-1,-1,-1,-1,-1,-1,-1],"loss_changes":[5.66949E3,2.0810007E3,1.3590312E3,7.890801E2,9.361142E2,5.6461334E2,3.6244678E2,0E0,0E0,0E0,0E0,0E0,0E0,0E0,0E0],"parents":[2147483647,0,0,1,1,2,2,3,3,4,4,5,5,6,6],"right_children":[2,4,6,8,10,12,14,-1,-1,-1,-1,-1,-1,-1,-1],"split_conditions":[4.3296167E-1,5.5651665E-1,4.9909985E-1,2.2888342E-1,2.3791608E-1,8.289166E-2,8.833922E-1,7.691679E-2,3.3838708E-2,4.245218E-2,-1.660293E-2,-2.7043829E-2,1.5070632E-2,-3.2537535E-2,-6.1603125E-2],"split_indices":[11,10,10,11,11,24,7,0,0,0,0,0,0,0,0],"split_type":[0,0,0,0,0,0,0,0,0,0,0,0,0,0,0],"sum_hessian":[5.3975023E4,3.0053586E4,2.3921438E4,1.8190012E4,1.1863573E4,9.8922E3,1.4029237E4,4.3931704E3,1.3796842E4,2.6971604E3,9.166413E3,5.167633E3,4.724567E3,5.81242E3,8.216817E3],"tree_param":{"num_deleted":"0","num_feature":"31","num_nodes":"15","size_leaf_vector":"1"}},{"base_weights":[-3.1364206E-3,2.1616071E-1,-4.1440508E-1,6.9334227E-1,1.1403487E-1,-5.726927E-1,-1.9951755E-1,3.3058804E-2,7.080723E-2,-7.877579E-3,2.9619118E-2,-3.305339E-2,-6.1829675E-2,-6.6634174E-3,-4.3020308E-2],"categories":[],"categories_nodes":[],"categories_segments":[],"categories_sizes":[],"default_left":[1,0,0,0,0,0,0,0,0,0,0,0,0,0,0],"id":8,"left_children":[1,3,5,7,9,11,13,-1,-1,-1,-1,-1,-1,-1,-1],"loss_changes":[4.840451E3,1.6992456E3,6.2972217E2,2.0741089E2,1.3036906E3,2.6586572E2,2.799686E2,0E0,0E0,0E0,0E0,0E0,0E0,0E0,0E0],"parents":[2147483647,0,0,1,1,2,2,3,3,4,4,5,5,6,6],"right_children":[2,4,6,8,10,12,14,-1,-1,-1,-1,-1,-1,-1,-1],"split_conditions":[5.118918E-1,2.1396685E-1,9.1633074E-2,8.868837E-2,9.1633074E-2,8.7321055E-1,6.667703E-1,3.3058804E-2,7.080723E-2,-7.877579E-3,2.9619118E-2,-3.305339E-2,-6.1829675E-2,-6.6634174E-3,-4.3020308E-2],"split_indices":[11,11,24,27,24,7,8,0,0,0,0,0,0,0,0],"split_type":[0,0,0,0,0,0,0,0,0,0,0,0,0,0,0],"sum_hessian":[5.3654246E4,3.4983484E4,1.8670764E4,6.155272E3,2.882821E4,1.0732738E4,7.938025E3,1.5976584E3,4.557614E3,1.5028415E4,1.3799795E4,4.256236E3,6.476503E3,5.5703013E3,2.3677239E3],"tree_param":{"num_deleted":"0","num_feature":"31","num_nodes":"15","size_leaf_vector":"1"}},{"base_weights":[-6.2050875E-3,4.2016244E-1,-1.6327326E-1,7.259738E-1,2.8544068E-1,-1.6466757E-2,-4.3881118E-1,4.0184714E-2,7.314447E-2,5.8121853E-2,1.4385057E-2,-1.793317E-2,1.3643796E-2,-2.7404329E-2,-5.6008235E-2],"categories":[],"categories_nodes":[],"categories_segments":[],"categories_sizes":[],"default_left":[0,0,1,0,0,0,0,0,0,0,0,0,0,0,0],"id":9,"left_children":[1,3,5,7,9,11,13,-1,-1,-1,-1,-1,-1,-1,-1],"loss_changes":[3.5748538E3,5.848728E2,1.5761013E3,1.1395679E2,4.5092206E2,8.166467E2,3.3432935E2,0E0,0E0,0E0,0E0,0E0,0E0,0E0,0E0],"parents":[2147483647,0,0,1,1,2,2,3,3,4,4,5,5,6,6],"right_children":[2,4,6,8,10,12,14,-1,-1,-1,-1,-1,-1,-1,-1],"split_conditions":[3.34018E-1,8.3472455E-1,6.369364E-1,7.482316E-2,1.05316974E-1,8.99002E-2,7.0596564E-1,4.0184714E-2,7.314447E-2,5.8121853E-2,1.4385057E-2,-1.793317E-2,1.3643796E-2,-2.7404329E-2,-5.6008235E-2],"split_indices":[10,7,10,26,10,26,10,0,0,0,0,0,0,0,0],"split_type":[0,0,0,0,0,0,0,0,0,0,0,0,0,0,0],"sum_hessian":[5.3407465E4,1.436609E4,3.9041375E4,4.377656E3,9.988435E3,2.5487023E4,1.3554351E4,1.2351348E3,3.142521E3,2.4462385E3,7.542196E3,1.2203186E4,1.3283838E4,8.234895E3,5.319457E3],"tree_param":{"num_deleted":"0","num_feature":"31","num_nodes":"15","size_leaf_vector":"1"}},{"base_weights":[-2.907587E-3,2.1156864E-1,-2.7225015E-1,3.0997673E-1,-1.6967675E-1,3.480919E-1,-3.2708675E-1,-8.992863E-3,3.5536513E-2,8.9964755E-3,-2.7969541E-2,5.4632355E-2,6.9760075E-3,-8.8035995E-3,-4.044569E-2],"categories":[],"categories_nodes":[],"categories_segments":[],"categories_sizes":[],"default_left":[0,1,0,0,0,0,0,0,0,0,0,0,0,0,0],"id":10,"left_children":[1,3,5,7,9,11,13,-1,-1,-1,-1,-1,-1,-1,-1],"loss_changes":[3.0785305E3,1.1133387E3,8.038645E2,9.0780273E2,2.4501585E2,1.3471686E2,6.467825E2,0E0,0E0,0E0,0E0,0E0,0E0,0E0,0E0],"parents":[2147483647,0,0,1,1,2,2,3,3,4,4,5,5,6,6],"right_children":[2,4,6,8,10,12,14,-1,-1,-1,-1,-1,-1,-1,-1],"split_conditions":[5.505775E-1,3.8806075E-1,2.7710932E-1,5.757932E-2,8.573976E-1,2.316643E-1,8.632608E-1,-8.992863E-3,3.5536513E-2,8.9964755E-3,-2.7969541E-2,5.4632355E-2,6.9760075E-3,-8.8035995E-3,-4.044569E-2],"split_indices":[10,9,9,26,7,2,7,0,0,0,0,0,0,0,0],"split_type":[0,0,0,0,0,0,0,0,0,0,0,0,0,0,0],"sum_hessian":[5.32844E4,2.9649188E4,2.3635213E4,2.3580646E4,6.068541E3,1.9093491E3,2.1725863E4,4.337319E3,1.9243328E4,2.120093E3,3.9484482E3,9.3687286E2,9.724762E2,7.9960596E3,1.3729804E4],"tree_param":{"num_deleted":"0","num_feature":"31","num_nodes":"15","size_leaf_vector":"1"}},{"base_weights":[-1.0153118E-3,3.3323175E-1,-1.383221E-1,5.404324E-1,1.4884615E-1,-4.5686498E-1,-4.025966E-2,5.671469E-2,1.66386E-2,4.3308232E-2,2.3952753E-3,-2.6593806E-2,-5.6995507E-2,1.1062763E-2,-2.328574E-2],"categories":[],"categories_nodes":[],"categories_segments":[],"categories_sizes":[],"default_left":[0,0,0,0,0,0,0,0,0,0,0,0,0,0,0],"id":11,"left_children":[1,3,5,7,9,11,13,-1,-1,-1,-1,-1,-1,-1,-1],"loss_changes":[2.4296436E3,5.839219E2,1.1698362E3,2.5654175E2,3.3694293E2,2.532749E2,1.067779E3,0E0,0E0,0E0,0E0,0E0,0E0,0E0,0E0],"parents":[2147483647,0,0,1,1,2,2,3,3,4,4,5,5,6,6],"right_children":[2,4,6,8,10,12,14,-1,-1,-1,-1,-1,-1,-1,-1],"split_conditions":[3.5512564E-1,8.6326146E-1,8.264028E-2,5.15E1,1.258333E-1,4.1284528E-1,4.57E1,5.671469E-2,1.66386E-2,4.3308232E-2,2.3952753E-3,-2.6593806E-2,-5.6995507E-2,1.1062763E-2,-2.328574E-2],"split_indices":[10,7,27,0,10,3,0,0,0,0,0,0,0,0,0],"split_type":[0,0,0,0,0,0,0,0,0,0,0,0,0,0,0],"sum_hessian":[5.296928E4,1.5408885E4,3.7560395E4,7.237878E3,8.1710063E3,8.824518E3,2.8735879E4,5.582206E3,1.6556721E3,2.1267354E3,6.0442705E3,4.8759707E3,3.9485469E3,1.6494512E4,1.2241366E4],"tree_param":{"num_deleted":"0","num_feature":"31","num_nodes":"15","size_leaf_vector":"1"}},{"base_weights":[3.5363655E-3,1.7020239E-1,-4.1051853E-1,4.9559507E-1,3.0653954E-2,-2.5855327E-1,-5.957203E-1,6.754686E-2,3.3097323E-2,3.5792615E-2,-7.1017873E-3,-3.659714E-2,-8.158307E-3,-8.8809125E-2,-4.9108326E-2],"categories":[],"categories_nodes":[],"categories_segments":[],"categories_sizes":[],"default_left":[1,0,1,0,0,0,0,0,0,0,0,0,0,0,0],"id":12,"left_children":[1,3,5,7,9,11,13,-1,-1,-1,-1,-1,-1,-1,-1],"loss_changes":[3.659323E3,1.7144758E3,4.2226196E2,3.6086548E2,1.1087698E3,2.143529E2,9.767505E1,0E0,0E0,0E0,0E0,0E0,0E0,0E0,0E0],"parents":[2147483647,0,0,1,1,2,2,3,3,4,4,5,5,6,6],"right_children":[2,4,6,8,10,12,14,-1,-1,-1,-1,-1,-1,-1,-1],"split_conditions":[5.585066E-1,3.1547216E-1,5.7847035E-1,1.4916746E-1,2.8226438E-1,6.686006E-2,1E0,6.754686E-2,3.3097323E-2,3.5792615E-2,-7.1017873E-3,-3.659714E-2,-8.158307E-3,-8.8809125E-2,-4.9108326E-2],"split_indices":[11,11,10,11,10,24,14,0,0,0,0,0,0,0,0],"split_type":[0,0,0,0,0,0,0,0,0,0,0,0,0,0,0],"sum_hessian":[5.305095E4,3.783733E4,1.5213621E4,1.13416875E4,2.6495639E4,8.377191E3,6.8364297E3,3.4663035E3,7.8753843E3,6.069795E3,2.0425844E4,4.2879507E3,4.0892405E3,5.694298E2,6.267E3],"tree_param":{"num_deleted":"0","num_feature":"31","num_nodes":"15","size_leaf_vector":"1"}},{"base_weights":[-2.394325E-3,1.4845277E-1,-4.154377E-1,2.3941003E-1,-3.1523797E-1,2.2123446E-1,-4.5035738E-1,4.2993125E-2,9.997137E-3,2.4340454E-2,-3.426953E-2,3.9831933E-2,-1.4390376E-2,-2.7712932E-2,-4.927305E-2],"categories":[],"categories_nodes":[],"categories_segments":[],"categories_sizes":[],"default_left":[1,1,0,0,0,0,0,0,0,0,0,0,0,0,0],"id":13,"left_children":[1,3,5,7,9,11,13,-1,-1,-1,-1,-1,-1,-1,-1],"loss_changes":[3.2768433E3,1.6228029E3,3.1447168E2,1.0031598E3,2.7493243E2,6.599582E1,1.912268E2,0E0,0E0,0E0,0E0,0E0,0E0,0E0,0E0],"parents":[2147483647,0,0,1,1,2,2,3,3,4,4,5,5,6,6],"right_children":[2,4,6,8,10,12,14,-1,-1,-1,-1,-1,-1,-1,-1],"split_conditions":[5.726825E-1,5.002835E-1,2.514373E-1,3.44155E-1,1.8088798E-1,3.5019436E-1,6.7065173E-1,4.2993125E-2,9.997137E-3,2.4340454E-2,-3.426953E-2,3.9831933E-2,-1.4390376E-2,-2.7712932E-2,-4.927305E-2],"split_indices":[11,9,9,11,11,2,11,0,0,0,0,0,0,0,0],"split_type":[0,0,0,0,0,0,0,0,0,0,0,0,0,0,0],"sum_hessian":[5.2562742E4,3.8489336E4,1.4073407E4,3.2189914E4,6.2994214E3,7.214447E2,1.3351962E4,1.0813759E4,2.1376156E4,6.866771E2,5.612744E3,4.621575E2,2.5928717E2,5.9613193E3,7.390643E3],"tree_param":{"num_deleted":"0","num_feature":"31","num_nodes":"15","size_leaf_vector":"1"}},{"base_weights":[-2.7426772E-3,1.6030508E-1,-3.0935788E-1,2.8422937E-1,-1.7334157E-1,9.691896E-2,-3.743918E-1,5.7832588E-2,1.899867E-2,5.0533894E-2,-2.0046374E-2,4.833019E-2,-0E0,-0E0,-3.7348617E-2],"categories":[],"categories_nodes":[],"categories_segments":[],"categories_sizes":[],"default_left":[1,0,0,0,0,0,0,0,0,0,0,0,0,0,0],"id":14,"left_children":[1,3,5,7,9,11,13,-1,-1,-1,-1,-1,-1,-1,-1],"loss_changes":[2.624783E3,1.4168151E3,4.837085E2,6.3217346E2,3.7173575E2,1.081657E2,2.9248267E2,0E0,0E0,0E0,0E0,0E0,0E0,0E0,0E0],"parents":[2147483647,0,0,1,1,2,2,3,3,4,4,5,5,6,6],"right_children":[2,4,6,8,10,12,14,-1,-1,-1,-1,-1,-1,-1,-1],"split_conditions":[5.064842E-1,6.1655974E-1,2.4445182E-1,1.5287545E-1,1.276988E-1,5.5866856E-2,2.9213724E-1,5.7832588E-2,1.899867E-2,5.0533894E-2,-2.0046374E-2,4.833019E-2,-0E0,-0E0,-3.7348617E-2],"split_indices":[11,10,10,10,11,10,3,0,0,0,0,0,0,0,0],"split_type":[0,0,0,0,0,0,0,0,0,0,0,0,0,0,0],"sum_hessian":[5.2482453E4,3.4247953E4,1.82345E4,2.4987684E4,9.26027E3,2.5014026E3,1.5733097E4,3.8785537E3,2.110913E4,6.1702356E2,8.643246E3,4.3785458E2,2.063548E3,1.8236005E3,1.3909496E4],"tree_param":{"num_deleted":"0","num_feature":"31","num_nodes":"15","size_leaf_vector":"1"}},{"base_weights":[5.781183E-3,1.727962E-1,-2.0308256E-1,3.608725E-1,1.1698229E-2,-3.370043E-1,-1.8356593E-2,3.836027E-2,4.757787E-3,-2.1299051E-2,1.2074206E-2,-4.2753886E-3,-3.5884555E-2,1.2404884E-2,-1.5561885E-2],"categories":[],"categories_nodes":[],"categories_segments":[],"categories_sizes":[],"default_left":[0,0,0,0,0,0,0,0,0,0,0,0,0,0,0],"id":15,"left_children":[1,3,5,7,9,11,13,-1,-1,-1,-1,-1,-1,-1,-1],"loss_changes":[1.8285002E3,8.805823E2,5.7333704E2,3.0308264E2,4.983134E2,2.6945886E2,2.4702734E2,0E0,0E0,0E0,0E0,0E0,0E0,0E0,0E0],"parents":[2147483647,0,0,1,1,2,2,3,3,4,4,5,5,6,6],"right_children":[2,4,6,8,10,12,14,-1,-1,-1,-1,-1,-1,-1,-1],"split_conditions":[5.468141E-1,8.7320876E-1,9.1633074E-2,5.34E1,7.482316E-2,8.3472455E-1,6.165799E-1,3.836027E-2,4.757787E-3,-2.1299051E-2,1.2074206E-2,-4.2753886E-3,-3.5884555E-2,1.2404884E-2,-1.5561885E-2],"split_indices":[10,7,24,0,26,7,8,0,0,0,0,0,0,0,0],"split_type":[0,0,0,0,0,0,0,0,0,0,0,0,0,0,0],"sum_hessian":[5.2423527E4,2.9148484E4,2.3275041E4,1.3428363E4,1.5720122E4,1.3471246E4,9.803795E3,1.0790901E4,2.6374612E3,5.1834873E3,1.0536635E4,2.6541067E3,1.0817139E4,4.866277E3,4.9375176E3],"tree_param":{"num_deleted":"0","num_feature":"31","num_nodes":"15","size_leaf_vector":"1"}},{"base_weights":[-7.055597E-4,3.6272213E-1,-1.225617E-1,6.472748E-1,2.819576E-1,-2.773771E-1,5.4705802E-2,-0E0,6.085778E-2,5.4528445E-2,1.8843072E-2,-1.4567003E-2,-4.3127056E-2,1.6020749E-2,-1.6798528E-2],"categories":[],"categories_nodes":[],"categories_segments":[],"categories_sizes":[],"default_left":[0,0,0,0,1,0,1,0,0,0,0,0,0,0,0],"id":16,"left_children":[1,3,5,7,9,11,13,-1,-1,-1,-1,-1,-1,-1,-1],"loss_changes":[2.3047424E3,2.9378137E2,1.0723071E3,7.769446E1,2.2821259E2,4.9079846E2,5.662544E2,0E0,0E0,0E0,0E0,0E0,0E0,0E0,0E0],"parents":[2147483647,0,0,1,1,2,2,3,3,4,4,5,5,6,6],"right_children":[2,4,6,8,10,12,14,-1,-1,-1,-1,-1,-1,-1,-1],"split_conditions":[3.4741822E-1,1.3510601E-1,7.8216806E-2,8.2775906E-2,2.0468087E-1,6.1655974E-1,5.620605E-1,-0E0,6.085778E-2,5.4528445E-2,1.8843072E-2,-1.4567003E-2,-4.3127056E-2,1.6020749E-2,-1.6798528E-2],"split_indices":[11,11,24,30,10,10,11,0,0,0,0,0,0,0,0],"split_type":[0,0,0,0,0,0,0,0,0,0,0,0,0,0,0],"sum_hessian":[5.20799E4,1.3063144E4,3.9016754E4,2.8690571E3,1.0194086E4,2.0848184E4,1.816857E4,1.8499821E2,2.684059E3,1.6990493E3,8.495037E3,1.3657446E4,7.190737E3,1.1987347E4,6.1812236E3],"tree_param":{"num_deleted":"0","num_feature":"31","num_nodes":"15","size_leaf_vector":"1"}},{"base_weights":[-8.513743E-3,1.674106E-1,-2.1998557E-1,2.622953E-1,-2.1143857E-1,-1.3946253E-1,-5.390827E-1,2.9919999E-2,-3.3352042E-3,7.819547E-3,-2.789109E-2,-2.4223675E-3,-3.5116017E-2,-3.3223666E-2,-6.3238636E-2],"categories":[],"categories_nodes":[],"categories_segments":[],"categories_sizes":[],"default_left":[1,1,1,0,0,0,0,0,0,0,0,0,0,0,0],"id":17,"left_children":[1,3,5,7,9,11,13,-1,-1,-1,-1,-1,-1,-1,-1],"loss_changes":[1.9212799E3,1.0128968E3,5.9824316E2,5.242317E2,1.7895377E2,5.409106E2,1.287002E2,0E0,0E0,0E0,0E0,0E0,0E0,0E0,0E0],"parents":[2147483647,0,0,1,1,2,2,3,3,4,4,5,5,6,6],"right_children":[2,4,6,8,10,12,14,-1,-1,-1,-1,-1,-1,-1,-1],"split_conditions":[4.1359675E-1,4.2586178E-1,5.002835E-1,5.23E1,2.3791608E-1,6.738301E-1,6.11E-1,2.9919999E-2,-3.3352042E-3,7.819547E-3,-2.789109E-2,-2.4223675E-3,-3.5116017E-2,-3.3223666E-2,-6.3238636E-2],"split_indices":[11,9,9,0,11,11,8,0,0,0,0,0,0,0,0],"split_type":[0,0,0,0,0,0,0,0,0,0,0,0,0,0,0],"sum_hessian":[5.16333E4,2.8167717E4,2.3465584E4,2.2540586E4,5.627132E3,1.8754617E4,4.710966E3,1.7948262E4,4.5923237E3,1.4413953E3,4.1857363E3,1.3111784E4,5.642833E3,2.4885928E3,2.2223733E3],"tree_param":{"num_deleted":"0","num_feature":"31","num_nodes":"15","size_leaf_vector":"1"}},{"base_weights":[-4.0284363E-3,1.8528584E-1,-1.4842346E-1,3.6193766E-2,3.2029587E-1,-2.8636193E-1,2.1751365E-2,2.7504552E-2,-2.661773E-3,3.8328957E-2,7.1853395E-3,-4.178722E-2,-1.7149396E-2,5.4831617E-3,-2.7677052E-2],"categories":[],"categories_nodes":[],"categories_segments":[],"categories_sizes":[],"default_left":[0,0,0,0,0,0,0,0,0,0,0,0,0,0,0],"id":18,"left_children":[1,3,5,7,9,11,13,-1,-1,-1,-1,-1,-1,-1,-1],"loss_changes":[1.4087634E3,4.4605182E2,6.8871814E2,1.9635136E2,3.1569336E2,2.742771E2,1.759309E2,0E0,0E0,0E0,0E0,0E0,0E0,0E0,0E0],"parents":[2147483647,0,0,1,1,2,2,3,3,4,4,5,5,6,6],"right_children":[2,4,6,8,10,12,14,-1,-1,-1,-1,-1,-1,-1,-1],"split_conditions":[8.7320876E-1,8.99002E-2,9.4826765E-2,7.458E-1,6.437135E-1,8.264028E-2,3.2561E-2,2.7504552E-2,-2.661773E-3,3.8328957E-2,7.1853395E-3,-4.178722E-2,-1.7149396E-2,5.4831617E-3,-2.7677052E-2],"split_indices":[7,26,24,5,8,27,15,0,0,0,0,0,0,0,0],"split_type":[0,0,0,0,0,0,0,0,0,0,0,0,0,0,0],"sum_hessian":[5.154435E4,2.2282342E4,2.9262008E4,1.0613306E4,1.1669037E4,1.618424E4,1.3077767E4,2.0790237E3,8.534282E3,7.865368E3,3.8036687E3,5.289046E3,1.0895194E4,1.16897705E4,1.3879965E3],"tree_param":{"num_deleted":"0","num_feature":"31","num_nodes":"15","size_leaf_vector":"1"}},{"base_weights":[-4.2533367E-3,1.3858308E-1,-2.3519495E-1,1.8060014E-1,-4.5679623E-1,-6.7963704E-2,-3.673719E-1,3.8783073E-2,8.549966E-3,-2.2946818E-2,-5.996227E-2,9.3604475E-3,-2.117527E-2,1.1227143E-2,-3.482772E-2],"categories":[],"categories_nodes":[],"categories_segments":[],"categories_sizes":[],"default_left":[1,1,0,0,0,0,1,0,0,0,0,0,0,0,0],"id":19,"left_children":[1,3,5,7,9,11,13,-1,-1,-1,-1,-1,-1,-1,-1],"loss_changes":[1.6964153E3,7.9218634E2,4.316239E2,6.3954834E2,8.489868E1,2.6210718E2,1.5252332E2,0E0,0E0,0E0,0E0,0E0,0E0,0E0,0E0],"parents":[2147483647,0,0,1,1,2,2,3,3,4,4,5,5,6,6],"right_children":[2,4,6,8,10,12,14,-1,-1,-1,-1,-1,-1,-1,-1],"split_conditions":[4.7045612E-1,7.1598995E-1,8.7321055E-1,2.4719094E-1,4.3473324E-1,6.212263E-1,1.258333E-1,3.8783073E-2,8.549966E-3,-2.2946818E-2,-5.996227E-2,9.3604475E-3,-2.117527E-2,1.1227143E-2,-3.482772E-2],"split_indices":[11,10,7,11,11,11,10,0,0,0,0,0,0,0,0],"split_type":[0,0,0,0,0,0,0,0,0,0,0,0,0,0,0],"sum_hessian":[5.1406703E4,3.1743504E4,1.96632E4,2.9661838E4,2.0816653E3,8.703651E3,1.0959549E4,7.208013E3,2.2453826E4,1.1244846E3,9.571807E2,4.30829E3,4.395361E3,5.695424E2,1.0390006E4],"tree_param":{"num_deleted":"0","num_feature":"31","num_nodes":"15","size_leaf_vector":"1"}},{"base_weights":[5.8221805E-5,3.224563E-1,-7.334853E-2,5.908914E-1,2.4091494E-1,-1.3767149E-2,-4.2233202E-1,5.774972E-2,9.726502E-3,2.6636465E-2,-9.152795E-3,-2.2880897E-2,5.3881267E-3,-2.2912491E-2,-5.0547827E-2],"categories":[],"categories_nodes":[],"categories_segments":[],"categories_sizes":[],"default_left":[0,0,1,0,1,0,0,0,0,0,0,0,0,0,0],"id":20,"left_children":[1,3,5,7,9,11,13,-1,-1,-1,-1,-1,-1,-1,-1],"loss_changes":[1.2168185E3,2.0305127E2,8.6619446E2,6.2810425E1,1.5644214E2,6.5919336E2,1.4346228E2,0E0,0E0,0E0,0E0,0E0,0E0,0E0,0E0],"parents":[2147483647,0,0,1,1,2,2,3,3,4,4,5,5,6,6],"right_children":[2,4,6,8,10,12,14,-1,-1,-1,-1,-1,-1,-1,-1],"split_conditions":[2.542455E-1,6.679726E-2,5.7290053E-1,5.2548784E-1,4.203965E-1,8.868837E-2,6.9661224E-1,5.774972E-2,9.726502E-3,2.6636465E-2,-9.152795E-3,-2.2880897E-2,5.3881267E-3,-2.2912491E-2,-5.0547827E-2],"split_indices":[10,10,9,2,9,27,9,0,0,0,0,0,0,0,0],"split_type":[0,0,0,0,0,0,0,0,0,0,0,0,0,0,0],"sum_hessian":[5.134301E4,9.539667E3,4.1803344E4,2.2028755E3,7.336792E3,3.572407E4,6.0792754E3,1.9300392E3,2.7283636E2,6.246187E3,1.0906047E3,8.364026E3,2.7360043E4,2.9533777E3,3.1258977E3],"tree_param":{"num_deleted":"0","num_feature":"31","num_nodes":"15","size_leaf_vector":"1"}},{"base_weights":[5.7685503E-4,7.3620744E-2,-2.8885403E-1,1.9473472E-1,-1.1395066E-1,-2.1721779E-1,-5.146169E-1,2.907202E-2,-1.7367975E-3,2.7782373E-2,-1.4742191E-2,-1.8867697E-3,-2.9975737E-2,-3.0563254E-2,-5.6511465E-2],"categories":[],"categories_nodes":[],"categories_segments":[],"categories_sizes":[],"default_left":[1,0,0,0,0,0,0,0,0,0,0,0,0,0,0],"id":21,"left_children":[1,3,5,7,9,11,13,-1,-1,-1,-1,-1,-1,-1,-1],"loss_changes":[1.081054E3,9.2984143E2,1.6150629E2,7.230117E2,3.6570447E2,1.861983E2,4.5369385E1,0E0,0E0,0E0,0E0,0E0,0E0,0E0,0E0],"parents":[2147483647,0,0,1,1,2,2,3,3,4,4,5,5,6,6],"right_children":[2,4,6,8,10,12,14,-1,-1,-1,-1,-1,-1,-1,-1],"split_conditions":[4.522409E-1,4.47E1,7.3853725E-1,6.587743E-1,7.594211E-1,5.8834094E-1,8.9381164E-1,2.907202E-2,-1.7367975E-3,2.7782373E-2,-1.4742191E-2,-1.8867697E-3,-2.9975737E-2,-3.0563254E-2,-5.6511465E-2],"split_indices":[9,0,9,8,7,8,7,0,0,0,0,0,0,0,0],"split_type":[0,0,0,0,0,0,0,0,0,0,0,0,0,0,0],"sum_hessian":[5.1205523E4,4.090597E4,1.0299552E4,2.4878771E4,1.6027199E4,7.8419175E3,2.457634E3,1.52819E4,9.596871E3,1.7566846E3,1.4270515E4,3.0455447E3,4.796373E3,1.0800571E3,1.3775769E3],"tree_param":{"num_deleted":"0","num_feature":"31","num_nodes":"15","size_leaf_vector":"1"}},{"base_weights":[-3.4320264E-3,2.3505737E-1,-1.2075569E-1,5.1482975E-1,1.6459781E-1,1.963769E-1,-1.9472213E-1,4.8312183E-2,-1.1329103E-2,-9.195119E-3,2.1392934E-2,-3.5816994E-3,2.7842829E-2,-9.56038E-3,-3.277207E-2],"categories":[],"categories_nodes":[],"categories_segments":[],"categories_sizes":[],"default_left":[0,0,1,0,0,0,1,0,0,0,0,0,0,0,0],"id":22,"left_children":[1,3,5,7,9,11,13,-1,-1,-1,-1,-1,-1,-1,-1],"loss_changes":[1.4262471E3,3.2641754E2,8.0231445E2,7.4934814E1,2.8329932E2,1.8466893E2,4.2062195E2,0E0,0E0,0E0,0E0,0E0,0E0,0E0,0E0],"parents":[2147483647,0,0,1,1,2,2,3,3,4,4,5,5,6,6],"right_children":[2,4,6,8,10,12,14,-1,-1,-1,-1,-1,-1,-1,-1],"split_conditions":[4.1359675E-1,1.4916746E-1,2.6225838E-1,9.37E-1,8.264028E-2,7.482316E-2,6.127042E-1,4.8312183E-2,-1.1329103E-2,-9.195119E-3,2.1392934E-2,-3.5816994E-3,2.7842829E-2,-9.56038E-3,-3.277207E-2],"split_indices":[11,11,10,5,27,26,11,0,0,0,0,0,0,0,0],"split_type":[0,0,0,0,0,0,0,0,0,0,0,0,0,0,0],"sum_hessian":[5.100126E4,1.6797395E4,3.4203867E4,3.3595278E3,1.3437866E4,6.451092E3,2.7752777E4,3.2043113E3,1.5521643E2,3.0051682E3,1.0432698E4,2.1432886E3,4.307803E3,1.8690248E4,9.062529E3],"tree_param":{"num_deleted":"0","num_feature":"31","num_nodes":"15","size_leaf_vector":"1"}},{"base_weights":[-7.5779273E-3,7.247068E-2,-3.05506E-1,2.4541552E-1,-5.242662E-2,-2.36512E-1,-4.8634192E-1,4.7673233E-2,1.6617209E-2,1.6735942E-3,-2.9593652E-2,-2.7533697E-2,-4.8772898E-3,-5.6218233E-2,-3.0040573E-2],"categories":[],"categories_nodes":[],"categories_segments":[],"categories_sizes":[],"default_left":[1,0,1,0,1,0,0,0,0,0,0,0,0,0,0],"id":23,"left_children":[1,3,5,7,9,11,13,-1,-1,-1,-1,-1,-1,-1,-1],"loss_changes":[1.213418E3,8.660568E2,1.2948608E2,2.774685E2,4.7209918E2,1.05111725E2,5.824005E1,0E0,0E0,0E0,0E0,0E0,0E0,0E0,0E0],"parents":[2147483647,0,0,1,1,2,2,3,3,4,4,5,5,6,6],"right_children":[2,4,6,8,10,12,14,-1,-1,-1,-1,-1,-1,-1,-1],"split_conditions":[6.0927564E-1,8.632608E-1,6.469733E-1,1.8814592E-1,6.554614E-1,8.065853E-2,1.6558E-1,4.7673233E-2,1.6617209E-2,1.6735942E-3,-2.9593652E-2,-2.7533697E-2,-4.8772898E-3,-5.6218233E-2,-3.0040573E-2],"split_indices":[11,7,10,10,10,28,4,0,0,0,0,0,0,0,0],"split_type":[0,0,0,0,0,0,0,0,0,0,0,0,0,0,0],"sum_hessian":[5.0812133E4,4.003273E4,1.0779404E4,1.6810592E4,2.3222137E4,7.8302324E3,2.9491714E3,2.6937385E3,1.4116854E4,1.8527883E4,4.6942554E3,5.491711E3,2.3385215E3,1.4214023E3,1.527769E3],"tree_param":{"num_deleted":"0","num_feature":"31","num_nodes":"15","size_leaf_vector":"1"}},{"base_weights":[-8.660492E-3,2.9188928E-1,-7.668926E-2,4.1793546E-1,1.443993E-1,-5.840232E-3,-3.5534826E-1,7.050884E-2,3.2441422E-2,-4.0067527E-3,2.4917515E-2,9.4050625E-3,-1.6963024E-2,-2.6028994E-2,-4.998385E-2],"categories":[],"categories_nodes":[],"categories_segments":[],"categories_sizes":[],"default_left":[0,0,1,0,0,0,0,0,0,0,0,0,0,0,0],"id":24,"left_children":[1,3,5,7,9,11,13,-1,-1,-1,-1,-1,-1,-1,-1],"loss_changes":[1.0337478E3,1.6949225E2,8.129957E2,8.7213806E1,1.1516859E2,6.927574E2,1.0020752E2,0E0,0E0,0E0,0E0,0E0,0E0,0E0,0E0],"parents":[2147483647,0,0,1,1,2,2,3,3,4,4,5,5,6,6],"right_children":[2,4,6,8,10,12,14,-1,-1,-1,-1,-1,-1,-1,-1],"split_conditions":[2.851799E-1,8.9381164E-1,4.522409E-1,2.1335569E-1,8.699532E-2,4.62E1,7.4991876E-1,7.050884E-2,3.2441422E-2,-4.0067527E-3,2.4917515E-2,9.4050625E-3,-1.6963024E-2,-2.6028994E-2,-4.998385E-2],"split_indices":[11,7,9,9,26,0,9,0,0,0,0,0,0,0,0],"split_type":[0,0,0,0,0,0,0,0,0,0,0,0,0,0,0],"sum_hessian":[5.0632684E4,9.326523E3,4.130616E4,5.0035283E3,4.322995E3,3.2952766E4,8.353395E3,5.614777E2,4.442051E3,1.8009227E3,2.5220723E3,2.0532643E4,1.2420124E4,6.5341772E3,1.8192174E3],"tree_param":{"num_deleted":"0","num_feature":"31","num_nodes":"15","size_leaf_vector":"1"}},{"base_weights":[-8.8702596E-4,6.63486E-2,-2.3507638E-1,-9.317403E-2,1.81844E-1,-1.6445068E-1,-4.648265E-1,5.015424E-3,-2.0026565E-2,2.3834739E-2,-3.042979E-3,-2.5246989E-2,3.8421527E-3,-4.206174E-2,4.5339797E-2],"categories":[],"categories_nodes":[],"categories_segments":[],"categories_sizes":[],"default_left":[1,0,0,0,0,0,0,0,0,0,0,0,0,0,0],"id":25,"left_children":[1,3,5,7,9,11,13,-1,-1,-1,-1,-1,-1,-1,-1],"loss_changes":[7.973203E2,7.2396716E2,1.7902344E2,3.3237878E2,4.3862494E2,2.2167526E2,3.1755737E1,0E0,0E0,0E0,0E0,0E0,0E0,0E0,0E0],"parents":[2147483647,0,0,1,1,2,2,3,3,4,4,5,5,6,6],"right_children":[2,4,6,8,10,12,14,-1,-1,-1,-1,-1,-1,-1,-1],"split_conditions":[4.1225156E-1,8.322846E-2,7.246007E-1,8.833922E-1,6.6538703E-1,4.46E1,1.2021543E-1,5.015424E-3,-2.0026565E-2,2.3834739E-2,-3.042979E-3,-2.5246989E-2,3.8421527E-3,-4.206174E-2,4.5339797E-2],"split_indices":[9,26,9,7,8,0,29,0,0,0,0,0,0,0,0],"split_type":[0,0,0,0,0,0,0,0,0,0,0,0,0,0,0],"sum_hessian":[5.0562617E4,3.926119E4,1.1301425E4,1.6462791E4,2.27984E4,8.66723E3,2.6341936E3,7.742628E3,8.720163E3,1.6198368E4,6.6000317E3,5.484315E3,3.182916E3,2.6082087E3,2.5984852E1],"tree_param":{"num_deleted":"0","num_feature":"31","num_nodes":"15","size_leaf_vector":"1"}},{"base_weights":[-2.8335352E-3,2.5856215E-1,-8.523496E-2,5.5809027E-1,1.855853E-1,-1.6732612E-1,8.423585E-2,5.4804176E-2,1.9982012E-2,-1.2598043E-2,1.902008E-2,-1.089881E-2,-3.986013E-2,1.7116887E-2,-1.0747068E-2],"categories":[],"categories_nodes":[],"categories_segments":[],"categories_sizes":[],"default_left":[0,0,0,0,0,1,0,0,0,0,0,0,0,0,0],"id":26,"left_children":[1,3,5,7,9,11,13,-1,-1,-1,-1,-1,-1,-1,-1],"loss_changes":[1.0850166E3,2.58615E2,5.342772E2,4.3651794E1,9.701346E1,3.1790765E2,2.8372162E2,0E0,0E0,0E0,0E0,0E0,0E0,0E0,0E0],"parents":[2147483647,0,0,1,1,2,2,3,3,4,4,5,5,6,6],"right_children":[2,4,6,8,10,12,14,-1,-1,-1,-1,-1,-1,-1,-1],"split_conditions":[3.3445412E-1,1.2064103E-1,1.0429124E-1,9.0533334E-1,1E0,7.062051E-1,4.369375E-1,5.4804176E-2,1.9982012E-2,-1.2598043E-2,1.902008E-2,-1.089881E-2,-3.986013E-2,1.7116887E-2,-1.0747068E-2],"split_indices":[11,11,24,5,14,11,3,0,0,0,0,0,0,0,0],"split_type":[0,0,0,0,0,0,0,0,0,0,0,0,0,0,0],"sum_hessian":[5.042934E4,1.2066788E4,3.8362555E4,2.3454E3,9.721388E3,2.587138E4,1.2491173E4,1.9495968E3,3.9580307E2,7.995783E2,8.92181E3,2.2454424E4,3.4169558E3,8.1679253E3,4.3232476E3],"tree_param":{"num_deleted":"0","num_feature":"31","num_nodes":"15","size_leaf_vector":"1"}},{"base_weights":[2.1556618E-3,6.2341657E-2,-2.7806765E-1,1.7208812E-1,-8.216763E-2,-9.014854E-2,-4.2468277E-1,2.3853721E-2,1.511412E-3,3.560837E-2,-1.0644311E-2,-1.5981605E-3,-4.16488E-2,1.9533534E-3,-4.0416505E-2],"categories":[],"categories_nodes":[],"categories_segments":[],"categories_sizes":[],"default_left":[1,1,0,0,0,1,0,0,0,0,0,0,0,0,0],"id":27,"left_children":[1,3,5,7,9,11,13,-1,-1,-1,-1,-1,-1,-1,-1],"loss_changes":[8.476623E2,6.5826483E2,2.4113824E2,3.5832635E2,3.3346216E2,1.0436807E2,7.825366E1,0E0,0E0,0E0,0E0,0E0,0E0,0E0,0E0],"parents":[2147483647,0,0,1,1,2,2,3,3,4,4,5,5,6,6],"right_children":[2,4,6,8,10,12,14,-1,-1,-1,-1,-1,-1,-1,-1],"split_conditions":[6.651384E-1,4.1534716E-1,5.3527623E-1,9.099181E-1,2.4809644E-1,6.0924596E-1,7.5941676E-1,2.3853721E-2,1.511412E-3,3.560837E-2,-1.0644311E-2,-1.5981605E-3,-4.16488E-2,1.9533534E-3,-4.0416505E-2],"split_indices":[10,11,11,7,9,9,7,0,0,0,0,0,0,0,0],"split_type":[0,0,0,0,0,0,0,0,0,0,0,0,0,0,0],"sum_hessian":[5.034862E4,4.1467082E4,8.881541E3,2.359554E4,1.7871543E4,3.9131755E3,4.9683657E3,1.4394416E4,9.201123E3,1.3014536E3,1.6570088E4,3.3082554E3,6.0492E2,3.358218E2,4.632544E3],"tree_param":{"num_deleted":"0","num_feature":"31","num_nodes":"15","size_leaf_vector":"1"}},{"base_weights":[8.659765E-3,2.3660319E-1,-5.5425227E-2,-2.2844923E-1,2.780946E-1,3.2638162E-1,-9.4046764E-2,-7.0464E-2,-1.1233925E-2,4.791482E-2,1.912265E-2,1.4611822E-2,3.946638E-2,-2.6043592E-2,-2.678813E-3],"categories":[],"categories_nodes":[],"categories_segments":[],"categories_sizes":[],"default_left":[0,0,0,0,0,0,0,0,0,0,0,0,0,0,0],"id":28,"left_children":[1,3,5,7,9,11,13,-1,-1,-1,-1,-1,-1,-1,-1],"loss_changes":[7.356484E2,2.1368207E2,5.766987E2,4.502095E1,1.5972571E2,6.567386E1,4.5463666E2,0E0,0E0,0E0,0E0,0E0,0E0,0E0,0E0],"parents":[2147483647,0,0,1,1,2,2,3,3,4,4,5,5,6,6],"right_children":[2,4,6,8,10,12,14,-1,-1,-1,-1,-1,-1,-1,-1],"split_conditions":[3.1859553E-1,2E0,1.5287545E-1,6.43055E-2,1.1247435E-1,8.612254E-2,8.868837E-2,-7.0464E-2,-1.1233925E-2,4.791482E-2,1.912265E-2,1.4611822E-2,3.946638E-2,-2.6043592E-2,-2.678813E-3],"split_indices":[11,16,10,26,11,26,27,0,0,0,0,0,0,0,0],"split_type":[0,0,0,0,0,0,0,0,0,0,0,0,0,0,0],"sum_hessian":[5.027427E4,1.1056282E4,3.9217984E4,8.9196185E2,1.016432E4,3.5861897E3,3.5631797E4,1.2373603E2,7.682258E2,1.8807202E3,8.283601E3,1.5684795E3,2.0177103E3,8.529397E3,2.7102398E4],"tree_param":{"num_deleted":"0","num_feature":"31","num_nodes":"15","size_leaf_vector":"1"}},{"base_weights":[-7.2517374E-4,6.967377E-2,-2.1095727E-1,2.110707E-1,-3.7940823E-2,-1.5892099E-1,-4.8045066E-1,2.4992451E-2,3.0754588E-3,-2.3183905E-2,2.572033E-3,-2.3291036E-2,-3.1107327E-4,-2.137561E-2,-5.6543585E-2],"categories":[],"categories_nodes":[],"categories_segments":[],"categories_sizes":[],"default_left":[1,0,0,1,0,0,0,0,0,0,0,0,0,0,0],"id":29,"left_children":[1,3,5,7,9,11,13,-1,-1,-1,-1,-1,-1,-1,-1],"loss_changes":[7.38934E2,5.692044E2,1.71328E2,2.0419263E2,3.2147412E2,1.7044986E2,7.079739E1,0E0,0E0,0E0,0E0,0E0,0E0,0E0,0E0],"parents":[2147483647,0,0,1,1,2,2,3,3,4,4,5,5,6,6],"right_children":[2,4,6,8,10,12,14,-1,-1,-1,-1,-1,-1,-1,-1],"split_conditions":[5.726825E-1,8.632625E-1,5.14272E-1,2.7088487E-1,8.264028E-2,1.9673334E-1,6.561584E-1,2.4992451E-2,3.0754588E-3,-2.3183905E-2,2.572033E-3,-2.3291036E-2,-3.1107327E-4,-2.137561E-2,-5.6543585E-2],"split_indices":[11,7,2,9,27,4,11,0,0,0,0,0,0,0,0],"split_type":[0,0,0,0,0,0,0,0,0,0,0,0,0,0,0],"sum_hessian":[4.9861492E4,3.7328598E4,1.2532895E4,1.6159994E4,2.1168604E4,1.05261045E4,2.0067896E3,1.1420983E4,4.7390107E3,4.8859907E3,1.6282613E4,6.2467905E3,4.2793145E3,8.275638E2,1.1792258E3],"tree_param":{"num_deleted":"0","num_feature":"31","num_nodes":"15","size_leaf_vector":"1"}},{"base_weights":[-1.2815528E-3,4.7461025E-2,-3.321755E-1,5.199086E-1,1.6286204E-2,-2.6377276E-1,-5.0050443E-1,6.628582E-2,3.488304E-2,-1.1353397E-2,8.54941E-3,7.5585633E-3,-2.7112685E-2,-5.819912E-2,-3.0116944E-2],"categories":[],"categories_nodes":[],"categories_segments":[],"categories_sizes":[],"default_left":[1,0,0,0,0,0,0,0,0,0,0,0,0,0,0],"id":30,"left_children":[1,3,5,7,9,11,13,-1,-1,-1,-1,-1,-1,-1,-1],"loss_changes":[8.046655E2,6.3491724E2,6.8493225E1,6.900702E1,4.7634695E2,7.182297E1,3.9314423E1,0E0,0E0,0E0,0E0,0E0,0E0,0E0,0E0],"parents":[2147483647,0,0,1,1,2,2,3,3,4,4,5,5,6,6],"right_children":[2,4,6,8,10,12,14,-1,-1,-1,-1,-1,-1,-1,-1],"split_conditions":[6.866554E-1,1.9434394E-1,6.681546E-1,1.1722112E-1,7.60928E-2,3.773672E-1,8.612254E-2,6.628582E-2,3.488304E-2,-1.1353397E-2,8.54941E-3,7.5585633E-3,-2.7112685E-2,-5.819912E-2,-3.0116944E-2],"split_indices":[10,9,8,9,26,9,26,0,0,0,0,0,0,0,0],"split_type":[0,0,0,0,0,0,0,0,0,0,0,0,0,0,0],"sum_hessian":[4.976832E4,4.336019E4,6.4081265E3,2.6703008E3,4.068989E4,4.5857656E3,1.8223605E3,9.1080804E2,1.7594928E3,1.4513437E4,2.6176455E4,4.9357855E2,4.0921873E3,8.864948E2,9.358657E2],"tree_param":{"num_deleted":"0","num_feature":"31","num_nodes":"15","size_leaf_vector":"1"}},{"base_weights":[6.3383416E-3,5.354788E-2,-2.3975232E-1,9.5707156E-2,-1.957072E-1,-1.9686027E-1,-5.974388E-1,-8.2156144E-4,1.7367035E-2,-1.2460057E-2,-5.447313E-2,1.3892996E-4,-2.551195E-2,-1.8945474E-2,-6.043708E-2],"categories":[],"categories_nodes":[],"categories_segments":[],"categories_sizes":[],"default_left":[1,1,0,0,0,0,0,0,0,0,0,0,0,0,0],"id":31,"left_children":[1,3,5,7,9,11,13,-1,-1,-1,-1,-1,-1,-1,-1],"loss_changes":[5.770462E2,4.38465E2,1.1706729E2,3.8201254E2,1.3294037E2,1.3339249E2,2.2066986E1,0E0,0E0,0E0,0E0,0E0,0E0,0E0,0E0],"parents":[2147483647,0,0,1,1,2,2,3,3,4,4,5,5,6,6],"right_children":[2,4,6,8,10,12,14,-1,-1,-1,-1,-1,-1,-1,-1],"split_conditions":[6.479769E-1,5.313948E-1,6.1819136E-1,9.1633074E-2,8.1264657E-1,3.97E1,1.035E5,-8.2156144E-4,1.7367035E-2,-1.2460057E-2,-5.447313E-2,1.3892996E-4,-2.551195E-2,-1.8945474E-2,-6.043708E-2],"split_indices":[11,9,2,24,9,0,1,0,0,0,0,0,0,0,0],"split_type":[0,0,0,0,0,0,0,0,0,0,0,0,0,0,0],"sum_hessian":[4.9779984E4,4.179101E4,7.9889727E3,3.576881E4,6.0222017E3,7.150834E3,8.381388E2,1.753128E4,1.823753E4,5.350294E3,6.719077E2,2.2514321E3,4.899402E3,1.7188765E2,6.662511E2],"tree_param":{"num_deleted":"0","num_feature":"31","num_nodes":"15","size_leaf_vector":"1"}},{"base_weights":[-4.4715093E-3,1.7437361E-1,-6.4546816E-2,2.5915357E-1,-6.2319808E-2,2.9183763E-1,-9.6348576E-2,4.7323182E-2,1.8241083E-2,-3.0989321E-2,9.521151E-4,1.7182311E-2,4.4419345E-2,6.8436344E-3,-1.2465311E-2],"categories":[],"categories_nodes":[],"categories_segments":[],"categories_sizes":[],"default_left":[0,0,0,0,0,0,0,0,0,0,0,0,0,0,0],"id":32,"left_children":[1,3,5,7,9,11,13,-1,-1,-1,-1,-1,-1,-1,-1],"loss_changes":[5.299804E2,2.5002896E2,4.1806094E2,1.2742999E2,7.103406E1,5.710849E1,2.6709406E2,0E0,0E0,0E0,0E0,0E0,0E0,0E0,0E0],"parents":[2147483647,0,0,1,1,2,2,3,3,4,4,5,5,6,6],"right_children":[2,4,6,8,10,12,14,-1,-1,-1,-1,-1,-1,-1,-1],"split_conditions":[8.256301E-1,6.667703E-1,1.7456427E-1,7.163324E-1,8.504409E-2,1.978E-1,3.1711614E-1,4.7323182E-2,1.8241083E-2,-3.0989321E-2,9.521151E-4,1.7182311E-2,4.4419345E-2,6.8436344E-3,-1.2465311E-2],"split_indices":[7,8,11,7,27,4,3,0,0,0,0,0,0,0,0],"split_type":[0,0,0,0,0,0,0,0,0,0,0,0,0,0,0],"sum_hessian":[4.9397992E4,1.2391894E4,3.7006098E4,9.145399E3,3.246494E3,3.0138535E3,3.3992246E4,1.4254708E3,7.7199287E3,6.741375E2,2.5723564E3,2.0913813E3,9.224721E2,6.9635693E3,2.7028676E4],"tree_param":{"num_deleted":"0","num_feature":"31","num_nodes":"15","size_leaf_vector":"1"}},{"base_weights":[4.111769E-3,3.6092665E-2,-3.5407624E-1,2.3504037E-1,-2.1855567E-2,-2.724234E-1,-6.210849E-1,-9.528208E-3,2.3430223E-2,-2.0279039E-2,3.0860645E-3,1.5883029E-2,-2.814245E-2,-6.5444626E-2,-2.0748997E-2],"categories":[],"categories_nodes":[],"categories_segments":[],"categories_sizes":[],"default_left":[1,0,0,0,0,0,0,0,0,0,0,0,0,0,0],"id":33,"left_children":[1,3,5,7,9,11,13,-1,-1,-1,-1,-1,-1,-1,-1],"loss_changes":[5.6611957E2,5.267652E2,8.208731E1,1.1000787E2,4.188961E2,6.7183716E1,3.67146E1,0E0,0E0,0E0,0E0,0E0,0E0,0E0,0E0],"parents":[2147483647,0,0,1,1,2,2,3,3,4,4,5,5,6,6],"right_children":[2,4,6,8,10,12,14,-1,-1,-1,-1,-1,-1,-1,-1],"split_conditions":[6.522717E-1,3.1859553E-1,4.843725E-1,2E0,8.868837E-2,7.5941867E-1,5.792E0,-9.528208E-3,2.3430223E-2,-2.0279039E-2,3.0860645E-3,1.5883029E-2,-2.814245E-2,-6.5444626E-2,-2.0748997E-2],"split_indices":[9,11,3,16,27,7,6,0,0,0,0,0,0,0,0],"split_type":[0,0,0,0,0,0,0,0,0,0,0,0,0,0,0],"sum_hessian":[4.96126E4,4.5563758E4,4.048843E3,1.0304803E4,3.5258957E4,3.1205024E3,9.283404E2,8.302696E2,9.474533E3,7.5899316E3,2.7669023E4,2.7902545E2,2.841477E3,6.923498E2,2.3599066E2],"tree_param":{"num_deleted":"0","num_feature":"31","num_nodes":"15","size_leaf_vector":"1"}},{"base_weights":[8.98169E-3,7.5996794E-2,-1.5754388E-1,4.62214E-1,5.105036E-2,-5.583675E-1,-1.20687515E-1,4.6159737E-2,3.7004375E-3,1.0240271E-2,-6.660387E-3,-2.5567317E-2,-6.165936E-2,-4.1612065E-3,-2.4485454E-2],"categories":[],"categories_nodes":[],"categories_segments":[],"categories_sizes":[],"default_left":[1,0,0,0,0,0,0,0,0,0,0,0,0,0,0],"id":34,"left_children":[1,3,5,7,9,11,13,-1,-1,-1,-1,-1,-1,-1,-1],"loss_changes":[5.5333295E2,3.377165E2,2.0526404E2,5.1206482E1,2.748318E2,3.789511E1,1.4819907E2,0E0,0E0,0E0,0E0,0E0,0E0,0E0,0E0],"parents":[2147483647,0,0,1,1,2,2,3,3,4,4,5,5,6,6],"right_children":[2,4,6,8,10,12,14,-1,-1,-1,-1,-1,-1,-1,-1],"split_conditions":[6.1655974E-1,6.679726E-2,8.2775906E-2,5.6311953E-1,6.437135E-1,1.26E5,7.0596564E-1,4.6159737E-2,3.7004375E-3,1.0240271E-2,-6.660387E-3,-2.5567317E-2,-6.165936E-2,-4.1612065E-3,-2.4485454E-2],"split_indices":[10,10,30,3,8,1,10,0,0,0,0,0,0,0,0],"split_type":[0,0,0,0,0,0,0,0,0,0,0,0,0,0,0],"sum_hessian":[4.9633594E4,3.542075E4,1.4212846E4,2.1322373E3,3.328851E4,1.181025E3,1.3031821E4,1.8455806E3,2.8665677E2,2.2017012E4,1.12715E4,4.242066E2,7.568184E2,8.9096455E3,4.1221753E3],"tree_param":{"num_deleted":"0","num_feature":"31","num_nodes":"15","size_leaf_vector":"1"}},{"base_weights":[-5.439702E-3,2.0170464E-1,-5.4225244E-2,4.6260276E-1,1.4027359E-1,1.1317832E-1,-1.13230646E-1,4.636125E-2,-0E0,-0E0,2.3010418E-2,1.0492569E-3,1.8960217E-2,-1.927165E-2,-1.2382003E-3],"categories":[],"categories_nodes":[],"categories_segments":[],"categories_sizes":[],"default_left":[0,0,0,0,0,0,0,0,0,0,0,0,0,0,0],"id":35,"left_children":[1,3,5,7,9,11,13,-1,-1,-1,-1,-1,-1,-1,-1],"loss_changes":[4.946733E2,1.4525052E2,3.92423E2,4.968564E1,1.26852066E2,1.0500885E2,3.0586188E2,0E0,0E0,0E0,0E0,0E0,0E0,0E0,0E0],"parents":[2147483647,0,0,1,1,2,2,3,3,4,4,5,5,6,6],"right_children":[2,4,6,8,10,12,14,-1,-1,-1,-1,-1,-1,-1,-1],"split_conditions":[2.586948E-1,5.5866856E-2,3.5729328E-1,5.2548784E-1,8.754746E-2,1.5294285E-1,8.99002E-2,4.636125E-2,-0E0,-0E0,2.3010418E-2,1.0492569E-3,1.8960217E-2,-1.927165E-2,-1.2382003E-3],"split_indices":[10,10,11,2,26,4,26,0,0,0,0,0,0,0,0],"split_type":[0,0,0,0,0,0,0,0,0,0,0,0,0,0,0],"sum_hessian":[4.9051207E4,9.323128E3,3.9728082E4,1.7553688E3,7.5677593E3,1.0323128E4,2.9404953E4,1.537196E3,2.1817273E2,3.5220981E3,4.045661E3,5.212721E3,5.1104067E3,1.4219858E4,1.5185095E4],"tree_param":{"num_deleted":"0","num_feature":"31","num_nodes":"15","size_leaf_vector":"1"}},{"base_weights":[-9.128151E-3,3.2069075E-1,-4.3522254E-2,1.0519814E0,2.963244E-1,7.132771E-2,-1.4539662E-1,1.1046102E-1,-8.816322E-3,4.587307E-2,1.8507268E-2,2.2154815E-2,1.1611384E-3,4.0511005E-3,-1.7160837E-2],"categories":[],"categories_nodes":[],"categories_segments":[],"categories_sizes":[],"default_left":[0,0,0,0,0,0,0,0,0,0,0,0,0,0,0],"id":36,"left_children":[1,3,5,7,9,11,13,-1,-1,-1,-1,-1,-1,-1,-1],"loss_changes":[5.54328E2,7.283917E1,5.202809E2,4.034659E1,8.149249E1,2.164704E2,2.2347943E2,0E0,0E0,0E0,0E0,0E0,0E0,0E0,0E0],"parents":[2147483647,0,0,1,1,2,2,3,3,4,4,5,5,6,6],"right_children":[2,4,6,8,10,12,14,-1,-1,-1,-1,-1,-1,-1,-1],"split_conditions":[2.5473744E-1,1.7067121E-2,8.833922E-1,1E0,1.3717948E-1,3.1975296E-1,3.1547216E-1,1.1046102E-1,-8.816322E-3,4.587307E-2,1.8507268E-2,2.2154815E-2,1.1611384E-3,4.0511005E-3,-1.7160837E-2],"split_indices":[9,2,7,22,9,3,11,0,0,0,0,0,0,0,0],"split_type":[0,0,0,0,0,0,0,0,0,0,0,0,0,0,0],"sum_hessian":[4.9035195E4,4.6115835E3,4.4423613E4,1.3953996E2,4.4720435E3,2.0850012E4,2.3573602E4,1.2389742E2,1.5642544E1,1.2212395E3,3.250804E3,5.061261E3,1.578875E4,4.801286E3,1.8772316E4],"tree_param":{"num_deleted":"0","num_feature":"31","num_nodes":"15","size_leaf_vector":"1"}},{"base_weights":[8.937266E-3,2.6027825E-1,-2.5276974E-2,3.463103E-1,-0E0,-1.4270496E-1,3.2867882E-2,-1.0532939E-2,3.5619117E-2,2.5768124E-2,-1.5503638E-2,-1.9747652E-2,4.2335782E-4,1.0787377E-2,-5.5095227E-3],"categories":[],"categories_nodes":[],"categories_segments":[],"categories_sizes":[],"default_left":[0,0,0,0,0,0,0,0,0,0,0,0,0,0,0],"id":37,"left_children":[1,3,5,7,9,11,13,-1,-1,-1,-1,-1,-1,-1,-1],"loss_changes":[4.2440536E2,1.3180576E2,2.9605496E2,1.2157477E2,7.6060196E1,1.7386963E2,2.4707674E2,0E0,0E0,0E0,0E0,0E0,0E0,0E0,0E0],"parents":[2147483647,0,0,1,1,2,2,3,3,4,4,5,5,6,6],"right_children":[2,4,6,8,10,12,14,-1,-1,-1,-1,-1,-1,-1,-1],"split_conditions":[7.594211E-1,1.353E3,7.482316E-2,5.427587E-2,5.9345263E-1,2.1132E-1,6.213196E-1,-1.0532939E-2,3.5619117E-2,2.5768124E-2,-1.5503638E-2,-1.9747652E-2,4.2335782E-4,1.0787377E-2,-5.5095227E-3],"split_indices":[7,17,26,27,8,4,8,0,0,0,0,0,0,0,0],"split_type":[0,0,0,0,0,0,0,0,0,0,0,0,0,0,0],"sum_hessian":[4.916349E4,5.914842E3,4.3248645E4,4.440104E3,1.4747375E3,1.4362181E4,2.8886465E4,4.7711447E2,3.9629897E3,5.5793414E2,9.168034E2,9.28709E3,5.0750903E3,1.4937831E4,1.3948634E4],"tree_param":{"num_deleted":"0","num_feature":"31","num_nodes":"15","size_leaf_vector":"1"}},{"base_weights":[-3.4900834E-3,9.50888E-2,-8.9269474E-2,3.2416377E-2,2.0225212E-1,-2.7024943E-1,-3.2866642E-2,3.2130335E-2,4.7264955E-4,2.7966352E-2,8.15561E-3,-5.39732E-2,-1.9941008E-2,2.3181606E-4,-2.7817113E-2],"categories":[],"categories_nodes":[],"categories_segments":[],"categories_sizes":[],"default_left":[0,0,0,0,0,0,1,0,0,0,0,0,0,0,0],"id":38,"left_children":[1,3,5,7,9,11,13,-1,-1,-1,-1,-1,-1,-1,-1],"loss_changes":[4.1446182E2,1.5130353E2,2.658396E2,1.2690528E2,1.0272046E2,8.7635345E1,2.0331107E2,0E0,0E0,0E0,0E0,0E0,0E0,0E0,0E0],"parents":[2147483647,0,0,1,1,2,2,3,3,4,4,5,5,6,6],"right_children":[2,4,6,8,10,12,14,-1,-1,-1,-1,-1,-1,-1,-1],"split_conditions":[4.88813E-1,1.023664E-1,8.264028E-2,5.5866856E-2,3.6541462E-1,1E0,7.1957356E-1,3.2130335E-2,4.7264955E-4,2.7966352E-2,8.15561E-3,-5.39732E-2,-1.9941008E-2,2.3181606E-4,-2.7817113E-2],"split_indices":[10,24,27,10,3,14,10,0,0,0,0,0,0,0,0],"split_type":[0,0,0,0,0,0,0,0,0,0,0,0,0,0,0],"sum_hessian":[4.901849E4,2.2770082E4,2.6248406E4,1.4408276E4,8.361806E3,6.2075327E3,2.0040873E4,1.0659319E3,1.3342345E4,4.0507915E3,4.3110146E3,6.8936914E2,5.5181636E3,1.7783781E4,2.2570918E3],"tree_param":{"num_deleted":"0","num_feature":"31","num_nodes":"15","size_leaf_vector":"1"}},{"base_weights":[-2.4036982E-3,5.5546753E-2,-1.3332836E-1,3.6836877E-1,3.1818748E-2,2.0829425E-3,-2.3075175E-1,3.7368108E-2,1.4223256E-3,-2.4855265E-3,1.2330117E-2,-2.262608E-2,5.2160867E-3,-1.5858766E-2,-4.4974063E-2],"categories":[],"categories_nodes":[],"categories_segments":[],"categories_sizes":[],"default_left":[1,0,0,0,0,0,0,0,0,0,0,0,0,0,0],"id":39,"left_children":[1,3,5,7,9,11,13,-1,-1,-1,-1,-1,-1,-1,-1],"loss_changes":[3.7111057E2,2.4826175E2,1.9976111E2,4.325818E1,2.0482599E2,9.107898E1,1.1974542E2,0E0,0E0,0E0,0E0,0E0,0E0,0E0,0E0],"parents":[2147483647,0,0,1,1,2,2,3,3,4,4,5,5,6,6],"right_children":[2,4,6,8,10,12,14,-1,-1,-1,-1,-1,-1,-1,-1],"split_conditions":[6.056258E-1,7.653055E-2,4.9566582E-1,5.5506057E-1,1.023664E-1,2E0,7.365242E-1,3.7368108E-2,1.4223256E-3,-2.4855265E-3,1.2330117E-2,-2.262608E-2,5.2160867E-3,-1.5858766E-2,-4.4974063E-2],"split_indices":[10,10,11,3,24,16,10,0,0,0,0,0,0,0,0],"split_type":[0,0,0,0,0,0,0,0,0,0,0,0,0,0,0],"sum_hessian":[4.8842113E4,3.3819777E4,1.5022335E4,2.363848E3,3.145593E4,6.2559585E3,8.766377E3,2.02454E3,3.3930783E2,2.0183455E4,1.1272475E4,1.1088574E3,5.147101E3,7.438813E3,1.3275637E3],"tree_param":{"num_deleted":"0","num_feature":"31","num_nodes":"15","size_leaf_vector":"1"}},{"base_weights":[4.37873E-3,4.222089E-1,-1.5951259E-2,5.437565E-1,2.5264728E-1,1.1688973E-2,-2.696162E-1,1.1493462E-2,5.761944E-2,3.1771634E-2,-0E0,3.3881657E-3,-2.0677468E-2,-2.798749E-2,4.3576765E-3],"categories":[],"categories_nodes":[],"categories_segments":[],"categories_sizes":[],"default_left":[0,0,1,0,1,1,0,0,0,0,0,0,0,0,0],"id":40,"left_children":[1,3,5,7,9,11,13,-1,-1,-1,-1,-1,-1,-1,-1],"loss_changes":[4.1731525E2,4.1474854E1,3.279316E2,5.3870636E1,2.7215462E1,2.7487704E2,7.2132385E1,0E0,0E0,0E0,0E0,0E0,0E0,0E0,0E0],"parents":[2147483647,0,0,1,1,2,2,3,3,4,4,5,5,6,6],"right_children":[2,4,6,8,10,12,14,-1,-1,-1,-1,-1,-1,-1,-1],"split_conditions":[1.764711E-1,4.2278945E-1,6.2527627E-1,2.71E1,4.0487838E-1,7.032033E-1,6.04E1,1.1493462E-2,5.761944E-2,3.1771634E-2,-0E0,3.3881657E-3,-2.0677468E-2,-2.798749E-2,4.3576765E-3],"split_indices":[9,3,9,0,11,11,0,0,0,0,0,0,0,0,0],"split_type":[0,0,0,0,0,0,0,0,0,0,0,0,0,0,0],"sum_hessian":[4.879671E4,2.279895E3,4.6516816E4,1.3041836E3,9.757114E2,4.19216E4,4.595217E3,2.8734607E2,1.0168376E3,6.886996E2,2.870118E2,3.783948E4,4.0821177E3,4.0138994E3,5.813173E2],"tree_param":{"num_deleted":"0","num_feature":"31","num_nodes":"15","size_leaf_vector":"1"}},{"base_weights":[-3.868586E-3,2.8086212E-1,-3.190253E-2,-9.783889E-2,3.2241523E-1,5.740247E-2,-1.1038534E-1,-1.0853221E-1,-8.839483E-5,5.4858837E-2,2.2748947E-2,1.0508949E-2,-7.2198715E-3,-7.2698467E-3,-3.1814955E-2],"categories":[],"categories_nodes":[],"categories_segments":[],"categories_sizes":[],"default_left":[0,0,0,0,0,0,1,0,0,0,0,0,0,0,0],"id":41,"left_children":[1,3,5,7,9,11,13,-1,-1,-1,-1,-1,-1,-1,-1],"loss_changes":[3.8707034E2,6.990811E1,3.113125E2,3.6805527E1,6.973578E1,1.7866806E2,1.6231296E2,0E0,0E0,0E0,0E0,0E0,0E0,0E0,0E0],"parents":[2147483647,0,0,1,1,2,2,3,3,4,4,5,5,6,6],"right_children":[2,4,6,8,10,12,14,-1,-1,-1,-1,-1,-1,-1,-1],"split_conditions":[2.4809644E-1,1E0,8.833922E-1,9.154156E-1,1.0933586E-1,6.460257E-1,6.4412636E-1,-1.0853221E-1,-8.839483E-5,5.4858837E-2,2.2748947E-2,1.0508949E-2,-7.2198715E-3,-7.2698467E-3,-3.1814955E-2],"split_indices":[9,14,7,7,9,8,9,0,0,0,0,0,0,0,0],"split_type":[0,0,0,0,0,0,0,0,0,0,0,0,0,0,0],"sum_hessian":[4.8708062E4,4.343701E3,4.436436E4,4.1301566E2,3.9306855E3,2.0710188E4,2.3654174E4,2.6878408E1,3.8613724E2,6.7476904E2,3.2559165E3,1.4378424E4,6.331764E3,2.1309217E4,2.3449573E3],"tree_param":{"num_deleted":"0","num_feature":"31","num_nodes":"15","size_leaf_vector":"1"}},{"base_weights":[2.7668907E-3,4.4120524E-2,-1.7719446E-1,2.4899323E-1,1.2163668E-2,2.828692E-1,-2.056007E-1,2.6350394E-2,3.7692778E-3,5.5674696E-3,-1.0131181E-2,4.4832148E-2,-8.572212E-3,-1.6741863E-2,-7.774861E-2],"categories":[],"categories_nodes":[],"categories_segments":[],"categories_sizes":[],"default_left":[1,0,0,1,0,0,0,0,0,0,0,0,0,0,0],"id":42,"left_children":[1,3,5,7,9,11,13,-1,-1,-1,-1,-1,-1,-1,-1],"loss_changes":[3.6149188E2,2.5765216E2,1.17973785E2,5.2451813E1,2.2209915E2,4.6895622E1,8.313287E1,0E0,0E0,0E0,0E0,0E0,0E0,0E0,0E0],"parents":[2147483647,0,0,1,1,2,2,3,3,4,4,5,5,6,6],"right_children":[2,4,6,8,10,12,14,-1,-1,-1,-1,-1,-1,-1,-1],"split_conditions":[6.22922E-1,1.8814592E-1,2.4809644E-1,2.9564255E-1,6.640453E-1,4.5680752E-1,2E0,2.6350394E-2,3.7692778E-3,5.5674696E-3,-1.0131181E-2,4.4832148E-2,-8.572212E-3,-1.6741863E-2,-7.774861E-2],"split_indices":[11,10,9,9,8,3,14,0,0,0,0,0,0,0,0],"split_type":[0,0,0,0,0,0,0,0,0,0,0,0,0,0,0],"sum_hessian":[4.8697984E4,3.962984E4,9.068143E3,5.318265E3,3.4311574E4,5.131719E2,8.554971E3,4.253757E3,1.0645083E3,2.4525094E4,9.786481E3,3.333627E2,1.7980916E2,8.371602E3,1.8336937E2],"tree_param":{"num_deleted":"0","num_feature":"31","num_nodes":"15","size_leaf_vector":"1"}},{"base_weights":[-3.8621693E-3,3.0734578E-2,-1.7674254E-1,-2.2926563E-1,5.4455824E-2,-1.4046162E-1,-4.9829164E-1,-4.436767E-3,-3.4896523E-2,-2.688931E-3,1.1391505E-2,-8.2886766E-4,-2.0148752E-2,-4.9030002E-2,2.215127E-3],"categories":[],"categories_nodes":[],"categories_segments":[],"categories_sizes":[],"default_left":[1,0,0,0,0,0,0,0,0,0,0,0,0,0,0],"id":43,"left_children":[1,3,5,7,9,11,13,-1,-1,-1,-1,-1,-1,-1,-1],"loss_changes":[2.9093332E2,2.4769206E2,9.026294E1,9.680719E1,2.3585638E2,8.283165E1,2.807576E1,0E0,0E0,0E0,0E0,0E0,0E0,0E0,0E0],"parents":[2147483647,0,0,1,1,2,2,3,3,4,4,5,5,6,6],"right_children":[2,4,6,8,10,12,14,-1,-1,-1,-1,-1,-1,-1,-1],"split_conditions":[6.380435E-1,8.2775906E-2,7.63248E-1,1.305E5,8.99002E-2,4.25E1,1.06545866E-1,-4.436767E-3,-3.4896523E-2,-2.688931E-3,1.1391505E-2,-8.2886766E-4,-2.0148752E-2,-4.9030002E-2,2.215127E-3],"split_indices":[11,30,8,1,26,0,24,0,0,0,0,0,0,0,0],"split_type":[0,0,0,0,0,0,0,0,0,0,0,0,0,0,0],"sum_hessian":[4.847313E4,4.0356883E4,8.116246E3,3.3497383E3,3.7007145E4,7.312675E3,8.0357117E2,1.6355255E3,1.7142128E3,1.7282168E4,1.9724975E4,2.9721985E3,4.3404766E3,7.3530756E2,6.826363E1],"tree_param":{"num_deleted":"0","num_feature":"31","num_nodes":"15","size_leaf_vector":"1"}},{"base_weights":[-1.8187152E-3,4.5903306E-2,-1.8340151E-1,-5.216061E-2,1.199739E-1,-1.2664233E-2,-2.594325E-1,1.5942235E-3,-1.4660973E-2,1.4774706E-2,-7.838835E-3,-8.257357E-3,3.408981E-2,2.582365E-3,-2.8717138E-2],"categories":[],"categories_nodes":[],"categories_segments":[],"categories_sizes":[],"default_left":[1,0,0,0,0,0,0,0,0,0,0,0,0,0,0],"id":44,"left_children":[1,3,5,7,9,11,13,-1,-1,-1,-1,-1,-1,-1,-1],"loss_changes":[4.2043378E2,2.7869318E2,1.292891E2,1.3291321E2,2.1822305E2,9.964313E1,1.3554291E2,0E0,0E0,0E0,0E0,0E0,0E0,0E0,0E0],"parents":[2147483647,0,0,1,1,2,2,3,3,4,4,5,5,6,6],"right_children":[2,4,6,8,10,12,14,-1,-1,-1,-1,-1,-1,-1,-1],"split_conditions":[4.2324653E-1,9.546012E-2,5.6666666E-1,9.099181E-1,7.1816796E-1,4E0,2.636468E-1,1.5942235E-3,-1.4660973E-2,1.4774706E-2,-7.838835E-3,-8.257357E-3,3.408981E-2,2.582365E-3,-2.8717138E-2],"split_indices":[9,25,8,7,8,23,11,0,0,0,0,0,0,0,0],"split_type":[0,0,0,0,0,0,0,0,0,0,0,0,0,0,0],"sum_hessian":[4.8408285E4,3.830355E4,1.0104732E4,1.6442049E4,2.1861502E4,3.1413904E3,6.963342E3,1.0141894E4,6.3001562E3,1.7827494E4,4.034008E3,2.6260527E3,5.153376E2,1.2823824E3,5.6809595E3],"tree_param":{"num_deleted":"0","num_feature":"31","num_nodes":"15","size_leaf_vector":"1"}},{"base_weights":[-3.0382036E-3,1.3389711E-1,-5.035077E-2,3.2941365E-1,8.672755E-2,2.3031293E-1,-7.452774E-2,-7.6317117E-3,3.2347057E-2,2.3416014E-2,2.792516E-3,3.4696087E-2,9.524497E-3,-9.94867E-3,8.251439E-3],"categories":[],"categories_nodes":[],"categories_segments":[],"categories_sizes":[],"default_left":[0,0,0,0,0,0,0,0,0,0,0,0,0,0,0],"id":45,"left_children":[1,3,5,7,9,11,13,-1,-1,-1,-1,-1,-1,-1,-1],"loss_changes":[3.127332E2,1.1129852E2,2.4306168E2,3.9134125E1,9.6470695E1,5.305597E1,2.1389653E2,0E0,0E0,0E0,0E0,0E0,0E0,0E0,0E0],"parents":[2147483647,0,0,1,1,2,2,3,3,4,4,5,5,6,6],"right_children":[2,4,6,8,10,12,14,-1,-1,-1,-1,-1,-1,-1,-1],"split_conditions":[3.4741822E-1,1.276988E-1,7.48167E-1,1.198E0,2.8589788E-1,4.045386E-1,3E0,-7.6317117E-3,3.2347057E-2,2.3416014E-2,2.792516E-3,3.4696087E-2,9.524497E-3,-9.94867E-3,8.251439E-3],"split_indices":[11,11,7,6,10,10,16,0,0,0,0,0,0,0,0],"split_type":[0,0,0,0,0,0,0,0,0,0,0,0,0,0,0],"sum_hessian":[4.835979E4,1.2380619E4,3.597917E4,2.3778271E3,1.0002792E4,2.8308047E3,3.3148367E4,1.8183746E2,2.1959897E3,2.3233892E3,7.679403E3,1.187448E3,1.6433567E3,2.702563E4,6.1227354E3],"tree_param":{"num_deleted":"0","num_feature":"31","num_nodes":"15","size_leaf_vector":"1"}},{"base_weights":[-5.6448753E-4,-1.5797526E-1,3.8757503E-2,-5.735498E-2,-2.8826305E-1,1.03452675E-1,-9.4231E-2,-3.8864564E-2,-2.004339E-3,-2.4243211E-3,-3.2497812E-2,1.435645E-2,-1.6291665E-4,1.8046942E-2,-1.225874E-2],"categories":[],"categories_nodes":[],"categories_segments":[],"categories_sizes":[],"default_left":[0,0,0,0,0,0,0,0,0,0,0,0,0,0,0],"id":46,"left_children":[1,3,5,7,9,11,13,-1,-1,-1,-1,-1,-1,-1,-1],"loss_changes":[2.999347E2,1.246904E2,3.3242355E2,6.981442E1,8.525421E1,1.6398492E2,1.6863608E2,0E0,0E0,0E0,0E0,0E0,0E0,0E0,0E0],"parents":[2147483647,0,0,1,1,2,2,3,3,4,4,5,5,6,6],"right_children":[2,4,6,8,10,12,14,-1,-1,-1,-1,-1,-1,-1,-1],"split_conditions":[8.264028E-2,4.1284528E-1,1.156E3,5.5348475E-2,3.077367E-1,4.67E1,3.361244E-1,-3.8864564E-2,-2.004339E-3,-2.4243211E-3,-3.2497812E-2,1.435645E-2,-1.6291665E-4,1.8046942E-2,-1.225874E-2],"split_indices":[27,3,17,30,11,0,9,0,0,0,0,0,0,0,0],"split_type":[0,0,0,0,0,0,0,0,0,0,0,0,0,0,0],"sum_hessian":[4.8323688E4,9.693894E3,3.8629797E4,5.4996724E3,4.1942207E3,2.6022592E4,1.2607204E4,4.3862152E2,5.061051E3,1.00930475E3,3.184916E3,1.6675736E4,9.346856E3,1.624569E3,1.0982635E4],"tree_param":{"num_deleted":"0","num_feature":"31","num_nodes":"15","size_leaf_vector":"1"}},{"base_weights":[-1.4429548E-3,9.3802195E-3,-5.032267E-1,3.2016444E-1,-7.766564E-3,3.1792536E-1,-5.7280177E-1,-1.557838E-2,3.249063E-2,1.3405288E-2,-3.5837211E-3,5.49461E-2,-1.2661864E-2,-0E0,-5.5970766E-2],"categories":[],"categories_nodes":[],"categories_segments":[],"categories_sizes":[],"default_left":[0,0,0,0,0,1,0,0,0,0,0,0,0,0,0],"id":47,"left_children":[1,3,5,7,9,11,13,-1,-1,-1,-1,-1,-1,-1,-1],"loss_changes":[2.648444E2,2.5319293E2,6.0602386E1,6.1171997E1,2.3388538E2,1.3569017E1,3.0104462E1,0E0,0E0,0E0,0E0,0E0,0E0,0E0,0E0],"parents":[2147483647,0,0,1,1,2,2,3,3,4,4,5,5,6,6],"right_children":[2,4,6,8,10,12,14,-1,-1,-1,-1,-1,-1,-1,-1],"split_conditions":[2E0,1.8959308E-1,8.2775906E-2,1E0,3.031912E-1,2.2811998E-1,5.3045005E-1,-1.557838E-2,3.249063E-2,1.3405288E-2,-3.5837211E-3,5.49461E-2,-1.2661864E-2,-0E0,-5.5970766E-2],"split_indices":[14,9,30,14,3,9,8,0,0,0,0,0,0,0,0],"split_type":[0,0,0,0,0,0,0,0,0,0,0,0,0,0,0],"sum_hessian":[4.8136766E4,4.7106902E4,1.0298634E3,2.484225E3,4.4622676E4,7.267094E1,9.571925E2,2.081176E2,2.2761077E3,7.5790312E3,3.7043645E4,5.2753773E1,1.9917166E1,1.03805855E2,8.5338666E2],"tree_param":{"num_deleted":"0","num_feature":"31","num_nodes":"15","size_leaf_vector":"1"}},{"base_weights":[-6.769776E-3,3.716454E-2,-1.1151519E-1,8.218752E-2,-9.134724E-2,-8.885731E-3,-2.0467785E-1,-2.00184E-2,9.197095E-3,-9.743261E-3,2.0330077E-2,5.6961447E-4,-4.8141412E-2,-2.1038288E-2,7.256107E-3],"categories":[],"categories_nodes":[],"categories_segments":[],"categories_sizes":[],"default_left":[0,0,0,0,0,0,0,0,0,0,0,0,0,0,0],"id":48,"left_children":[1,3,5,7,9,11,13,-1,-1,-1,-1,-1,-1,-1,-1],"loss_changes":[2.2140945E2,1.953294E2,1.3458322E2,1.708726E2,5.309369E1,5.9872746E1,7.35798E1,0E0,0E0,0E0,0E0,0E0,0E0,0E0,0E0],"parents":[2147483647,0,0,1,1,2,2,3,3,4,4,5,5,6,6],"right_children":[2,4,6,8,10,12,14,-1,-1,-1,-1,-1,-1,-1,-1],"split_conditions":[6.587743E-1,5.43E1,3.49E1,1E0,1.06545866E-1,2E0,5E0,-2.00184E-2,9.197095E-3,-9.743261E-3,2.0330077E-2,5.6961447E-4,-4.8141412E-2,-2.1038288E-2,7.256107E-3],"split_indices":[8,0,0,14,24,14,23,0,0,0,0,0,0,0,0],"split_type":[0,0,0,0,0,0,0,0,0,0,0,0,0,0,0],"sum_hessian":[4.8000582E4,3.3770027E4,1.4230558E4,2.5048404E4,8.721622E3,6.806604E3,7.4239536E3,1.653911E3,2.3394492E4,8.251129E3,4.7049286E2,6.6050503E3,2.0155344E2,6.658684E3,7.652695E2],"tree_param":{"num_deleted":"0","num_feature":"31","num_nodes":"15","size_leaf_vector":"1"}},{"base_weights":[4.4043567E-3,1.5305185E-2,-4.9874875E-1,1.8150821E-1,-1.6459588E-2,3.882172E-1,-5.855565E-1,2.0568402E-2,1.5667831E-3,8.402503E-4,-2.4687838E-2,6.406542E-2,-7.1652574E-3,-2.6762607E-2,-6.9227315E-2],"categories":[],"categories_nodes":[],"categories_segments":[],"categories_sizes":[],"default_left":[0,0,0,1,0,1,0,0,0,0,0,0,0,0,0],"id":49,"left_children":[1,3,5,7,9,11,13,-1,-1,-1,-1,-1,-1,-1,-1],"loss_changes":[2.6070532E2,2.4998836E2,7.893358E1,6.278061E1,2.7282657E2,1.7619528E1,4.4572357E1,0E0,0E0,0E0,0E0,0E0,0E0,0E0,0E0],"parents":[2147483647,0,0,1,1,2,2,3,3,4,4,5,5,6,6],"right_children":[2,4,6,8,10,12,14,-1,-1,-1,-1,-1,-1,-1,-1],"split_conditions":[2E0,7.952919E-1,8.2775906E-2,3.194622E-1,7.0596564E-1,2.92588E-1,1.3912103E-1,2.0568402E-2,1.5667831E-3,8.402503E-4,-2.4687838E-2,6.406542E-2,-7.1652574E-3,-2.6762607E-2,-6.9227315E-2],"split_indices":[14,7,30,9,10,11,2,0,0,0,0,0,0,0,0],"split_type":[0,0,0,0,0,0,0,0,0,0,0,0,0,0,0],"sum_hessian":[4.814265E4,4.713522E4,1.00742694E3,7.598014E3,3.9537207E4,8.269847E1,9.2472845E2,5.738139E3,1.859875E3,3.596517E4,3.572034E3,5.6608948E1,2.6089527E1,3.9804086E2,5.266876E2],"tree_param":{"num_deleted":"0","num_feature":"31","num_nodes":"15","size_leaf_vector":"1"}},{"base_weights":[-4.2775023E-4,-1.4567605E-1,3.553292E-2,-4.7525904E-1,-1.0628055E-1,8.6755544E-2,-8.21558E-2,-1.580652E-2,-6.291093E-2,4.106462E-2,-1.1597423E-2,-1.2485731E-2,9.507477E-3,1.4787864E-2,-1.1647468E-2],"categories":[],"categories_nodes":[],"categories_segments":[],"categories_sizes":[],"default_left":[0,0,0,0,0,0,0,0,0,0,0,0,0,0,0],"id":50,"left_children":[1,3,5,7,9,11,13,-1,-1,-1,-1,-1,-1,-1,-1],"loss_changes":[2.5075488E2,1.197941E2,2.310698E2,6.436238E1,1.2129613E2,1.287693E2,1.4447742E2,0E0,0E0,0E0,0E0,0E0,0E0,0E0,0E0],"parents":[2147483647,0,0,1,1,2,2,3,3,4,4,5,5,6,6],"right_children":[2,4,6,8,10,12,14,-1,-1,-1,-1,-1,-1,-1,-1],"split_conditions":[8.264028E-2,1E0,1.259E3,5.25352E-1,1.764711E-1,1E0,3.8018972E-1,-1.580652E-2,-6.291093E-2,4.106462E-2,-1.1597423E-2,-1.2485731E-2,9.507477E-3,1.4787864E-2,-1.1647468E-2],"split_indices":[27,14,17,10,9,14,9,0,0,0,0,0,0,0,0],"split_type":[0,0,0,0,0,0,0,0,0,0,0,0,0,0,0],"sum_hessian":[4.7861684E4,9.536288E3,3.8325395E4,9.994183E2,8.53687E3,2.6744145E4,1.1581249E4,4.5901077E2,5.404075E2,3.4995724E2,8.1869126E3,2.2355007E3,2.4508645E4,1.9074325E3,9.673816E3],"tree_param":{"num_deleted":"0","num_feature":"31","num_nodes":"15","size_leaf_vector":"1"}},{"base_weights":[7.930935E-3,2.3390149E-1,-1.0951703E-2,6.1625147E-1,1.8464531E-1,2.8294855E-1,-2.56567E-2,5.5868845E-2,-0E0,2.2135671E-2,-4.410136E-3,2.6253441E-2,-4.9059857E-2,2.4767134E-2,-3.505051E-3],"categories":[],"categories_nodes":[],"categories_segments":[],"categories_sizes":[],"default_left":[0,0,0,0,1,1,0,0,0,0,0,0,0,0,0],"id":51,"left_children":[1,3,5,7,9,11,13,-1,-1,-1,-1,-1,-1,-1,-1],"loss_changes":[2.0625453E2,6.46676E1,1.8945076E2,5.2761993E0,5.319175E1,2.4349106E1,1.8079442E2,0E0,0E0,0E0,0E0,0E0,0E0,0E0,0E0],"parents":[2147483647,0,0,1,1,2,2,3,3,4,4,5,5,6,6],"right_children":[2,4,6,8,10,12,14,-1,-1,-1,-1,-1,-1,-1,-1],"split_conditions":[1.258333E-1,9.9712955E-3,1.276988E-1,7.876317E-1,2.7088487E-1,7.524196E-1,1.764711E-1,5.5868845E-2,-0E0,2.2135671E-2,-4.410136E-3,2.6253441E-2,-4.9059857E-2,2.4767134E-2,-3.505051E-3],"split_indices":[10,10,11,3,9,10,9,0,0,0,0,0,0,0,0],"split_type":[0,0,0,0,0,0,0,0,0,0,0,0,0,0,0],"sum_hessian":[4.7976312E4,3.72812E3,4.4248195E4,4.0942413E2,3.318696E3,2.0859875E3,4.2162207E4,4.0008215E2,9.341958E0,2.608855E3,7.0984106E2,2.0576533E3,2.8334137E1,1.8332522E3,4.0328953E4],"tree_param":{"num_deleted":"0","num_feature":"31","num_nodes":"15","size_leaf_vector":"1"}},{"base_weights":[1.154929E-3,-2.9116554E-2,1.3437587E-1,-6.168862E-2,7.421924E-2,1.584288E-1,-2.3148584E-1,-2.3204185E-2,-3.839416E-3,1.1051357E-3,1.9205725E-2,2.2811718E-2,5.829863E-3,-4.313581E-2,2.256643E-2],"categories":[],"categories_nodes":[],"categories_segments":[],"categories_sizes":[],"default_left":[0,0,0,0,0,0,0,0,0,0,0,0,0,0,0],"id":52,"left_children":[1,3,5,7,9,11,13,-1,-1,-1,-1,-1,-1,-1,-1],"loss_changes":[1.93959E2,1.3118423E2,7.793796E1,1.06417595E2,8.0794876E1,7.540619E1,6.8531876E1,0E0,0E0,0E0,0E0,0E0,0E0,0E0,0E0],"parents":[2147483647,0,0,1,1,2,2,3,3,4,4,5,5,6,6],"right_children":[2,4,6,8,10,12,14,-1,-1,-1,-1,-1,-1,-1,-1],"split_conditions":[3E0,9.6404016E-2,7.9961294E-1,8.2775906E-2,9.766659E-2,3.98E1,9.293169E-2,-2.3204185E-2,-3.839416E-3,1.1051357E-3,1.9205725E-2,2.2811718E-2,5.829863E-3,-4.313581E-2,2.256643E-2],"split_indices":[16,26,8,30,28,0,26,0,0,0,0,0,0,0,0],"split_type":[0,0,0,0,0,0,0,0,0,0,0,0,0,0,0],"sum_hessian":[4.791473E4,3.9000723E4,8.914008E3,2.9704635E4,9.296087E3,8.381878E3,5.3212994E2,2.41909E3,2.7285545E4,6.53785E3,2.7582366E3,3.9785493E3,4.403328E3,3.572946E2,1.7483536E2],"tree_param":{"num_deleted":"0","num_feature":"31","num_nodes":"15","size_leaf_vector":"1"}},{"base_weights":[3.3798541E-3,2.8633561E-2,-2.0207657E-1,6.2919356E-2,-1.0831592E-1,-2.8385264E-1,1.990616E-2,1.0529494E-2,-5.035499E-3,-4.5426082E-4,-1.974939E-2,-3.686571E-2,-9.38272E-3,-1.978625E-3,6.744178E-2],"categories":[],"categories_nodes":[],"categories_segments":[],"categories_sizes":[],"default_left":[1,1,0,0,0,0,0,0,0,0,0,0,0,0,0],"id":53,"left_children":[1,3,5,7,9,11,13,-1,-1,-1,-1,-1,-1,-1,-1],"loss_changes":[2.4738788E2,2.0016492E2,9.6483215E1,2.3253157E2,1.00024994E2,8.7782776E1,4.8736546E1,0E0,0E0,0E0,0E0,0E0,0E0,0E0,0E0],"parents":[2147483647,0,0,1,1,2,2,3,3,4,4,5,5,6,6],"right_children":[2,4,6,8,10,12,14,-1,-1,-1,-1,-1,-1,-1,-1],"split_conditions":[6.9379944E-1,4.2324653E-1,8.219603E-2,4.77E1,1.9297127E-1,2E0,2E0,1.0529494E-2,-5.035499E-3,-4.5426082E-4,-1.974939E-2,-3.686571E-2,-9.38272E-3,-1.978625E-3,6.744178E-2],"split_indices":[10,9,28,0,2,23,22,0,0,0,0,0,0,0,0],"split_type":[0,0,0,0,0,0,0,0,0,0,0,0,0,0,0],"sum_hessian":[4.7911117E4,4.269674E4,5.214381E3,3.418816E4,8.508578E3,3.833388E3,1.380993E3,2.328004E4,1.090812E4,4.530779E3,3.977799E3,2.1585908E3,1.6747971E3,1.2979415E3,8.3051506E1],"tree_param":{"num_deleted":"0","num_feature":"31","num_nodes":"15","size_leaf_vector":"1"}},{"base_weights":[-6.184375E-5,9.834468E-2,-5.3779684E-2,-1.7076199E-1,1.2216973E-1,-1.4590308E-1,1.4199269E-2,2.1793086E-3,-2.933989E-2,2.7406575E-2,8.359486E-3,-8.093008E-3,-2.5534105E-2,1.7414536E-2,-1.9190396E-3],"categories":[],"categories_nodes":[],"categories_segments":[],"categories_sizes":[],"default_left":[0,0,0,0,0,1,0,0,0,0,0,0,0,0,0],"id":54,"left_children":[1,3,5,7,9,11,13,-1,-1,-1,-1,-1,-1,-1,-1],"loss_changes":[2.5260876E2,1.0769318E2,1.9501987E2,4.4819416E1,7.715465E1,1.0004596E2,1.1858876E2,0E0,0E0,0E0,0E0,0E0,0E0,0E0,0E0],"parents":[2147483647,0,0,1,1,2,2,3,3,4,4,5,5,6,6],"right_children":[2,4,6,8,10,12,14,-1,-1,-1,-1,-1,-1,-1,-1],"split_conditions":[4.2765737E-1,1E0,1.57E-1,1.305E5,1.2064103E-1,3.1371522E-1,3.0067432E-1,2.1793086E-3,-2.933989E-2,2.7406575E-2,8.359486E-3,-8.093008E-3,-2.5534105E-2,1.7414536E-2,-1.9190396E-3],"split_indices":[11,14,4,1,11,9,3,0,0,0,0,0,0,0,0],"split_type":[0,0,0,0,0,0,0,0,0,0,0,0,0,0,0],"sum_hessian":[4.784494E4,1.6849398E4,3.0995541E4,1.3467811E3,1.5502617E4,1.3203848E4,1.7791693E4,5.9122205E2,7.5555914E2,1.9279133E3,1.3574704E4,9.630482E3,3.573366E3,2.949212E3,1.4842481E4],"tree_param":{"num_deleted":"0","num_feature":"31","num_nodes":"15","size_leaf_vector":"1"}},{"base_weights":[-3.2861603E-3,4.1154623E-2,-1.162781E-1,-9.877974E-2,8.455025E-2,-1.4782296E-1,6.513527E-2,-3.575382E-2,-4.9272627E-3,1.153968E-2,-6.3430723E-3,1.098281E-2,-1.525948E-2,1.1588935E-2,-2.3279618E-2],"categories":[],"categories_nodes":[],"categories_segments":[],"categories_sizes":[],"default_left":[0,0,0,0,0,0,0,0,0,0,0,0,0,0,0],"id":55,"left_children":[1,3,5,7,9,11,13,-1,-1,-1,-1,-1,-1,-1,-1],"loss_changes":[2.4043927E2,2.0787181E2,7.800685E1,1.02972534E2,1.9044997E2,8.005003E1,4.2162766E1,0E0,0E0,0E0,0E0,0E0,0E0,0E0,0E0],"parents":[2147483647,0,0,1,1,2,2,3,3,4,4,5,5,6,6],"right_children":[2,4,6,8,10,12,14,-1,-1,-1,-1,-1,-1,-1,-1],"split_conditions":[1.327E3,8.868837E-2,1.0632722E-1,1E0,5.35E1,2.7404237E-1,1E0,-3.575382E-2,-4.9272627E-3,1.153968E-2,-6.3430723E-3,1.098281E-2,-1.525948E-2,1.1588935E-2,-2.3279618E-2],"split_indices":[17,27,24,14,0,9,22,0,0,0,0,0,0,0,0],"split_type":[0,0,0,0,0,0,0,0,0,0,0,0,0,0,0],"sum_hessian":[4.7778867E4,3.424767E4,1.3531196E4,8.0689277E3,2.6178744E4,1.1559368E4,1.9718278E3,9.693136E2,7.099614E3,2.022875E4,5.9499946E3,9.59456E2,1.0599913E4,1.6586102E3,3.1321753E2],"tree_param":{"num_deleted":"0","num_feature":"31","num_nodes":"15","size_leaf_vector":"1"}},{"base_weights":[1.0322821E-3,2.2941354E-1,-1.5696792E-2,5.1989023E-2,2.7807054E-1,-6.4899786E-3,-4.3571362E-1,8.598114E-3,-4.090789E-2,2.6838407E-2,-1.0241052E-2,-2.0337889E-2,1.1323057E-3,3.2716807E-2,-4.5028627E-2],"categories":[],"categories_nodes":[],"categories_segments":[],"categories_sizes":[],"default_left":[0,0,0,0,1,0,0,0,0,0,0,0,0,0,0],"id":56,"left_children":[1,3,5,7,9,11,13,-1,-1,-1,-1,-1,-1,-1,-1],"loss_changes":[1.8330318E2,2.5999496E1,1.6830139E2,1.476573E1,2.7788544E1,1.8963165E2,5.7656372E1,0E0,0E0,0E0,0E0,0E0,0E0,0E0,0E0],"parents":[2147483647,0,0,1,1,2,2,3,3,4,4,5,5,6,6],"right_children":[2,4,6,8,10,12,14,-1,-1,-1,-1,-1,-1,-1,-1],"split_conditions":[1.5568937E-1,1.8E0,2E0,4.622E-2,6.6603315E-1,8.2775906E-2,8.2775906E-2,8.598114E-3,-4.090789E-2,2.6838407E-2,-1.0241052E-2,-2.0337889E-2,1.1323057E-3,3.2716807E-2,-4.5028627E-2],"split_indices":[11,6,14,15,9,30,30,0,0,0,0,0,0,0,0],"split_type":[0,0,0,0,0,0,0,0,0,0,0,0,0,0,0],"sum_hessian":[4.7590254E4,3.2763347E3,4.4313918E4,7.3574976E2,2.540585E3,4.3379516E4,9.344012E2,6.883894E2,4.736035E1,2.3973684E3,1.4321658E2,3.4718884E3,3.990763E4,7.179491E1,8.6260626E2],"tree_param":{"num_deleted":"0","num_feature":"31","num_nodes":"15","size_leaf_vector":"1"}},{"base_weights":[-3.5050912E-3,2.9277837E-1,-1.7394725E-2,-3.5514215E-1,3.1942317E-1,3.1112028E-2,-9.640011E-2,2.3611207E-3,-6.405169E-2,-1.0519933E-2,3.0868886E-2,2.4767023E-2,1.1906313E-3,-2.616143E-2,-5.1088906E-3],"categories":[],"categories_nodes":[],"categories_segments":[],"categories_sizes":[],"default_left":[0,0,0,0,0,0,0,0,0,0,0,0,0,0,0],"id":57,"left_children":[1,3,5,7,9,11,13,-1,-1,-1,-1,-1,-1,-1,-1],"loss_changes":[1.9347748E2,3.607132E1,1.743387E2,1.5182472E1,2.9061615E1,1.21391266E2,1.3092729E2,0E0,0E0,0E0,0E0,0E0,0E0,0E0,0E0],"parents":[2147483647,0,0,1,1,2,2,3,3,4,4,5,5,6,6],"right_children":[2,4,6,8,10,12,14,-1,-1,-1,-1,-1,-1,-1,-1],"split_conditions":[1.2064103E-1,6.0765807E-2,9.198617E-1,4.6843037E-1,1.066E0,7.163324E-1,1E0,2.3611207E-3,-6.405169E-2,-1.0519933E-2,3.0868886E-2,2.4767023E-2,1.1906313E-3,-2.616143E-2,-5.1088906E-3],"split_indices":[11,24,7,9,6,7,7,0,0,0,0,0,0,0,0],"split_type":[0,0,0,0,0,0,0,0,0,0,0,0,0,0,0],"sum_hessian":[4.7477797E4,2.103749E3,4.5374047E4,7.2833786E1,2.0309153E3,2.8059064E4,1.7314982E4,2.6730377E1,4.6103405E1,1.185403E2,1.912375E3,1.8205632E3,2.6238502E4,2.7570593E3,1.4557923E4],"tree_param":{"num_deleted":"0","num_feature":"31","num_nodes":"15","size_leaf_vector":"1"}},{"base_weights":[-6.058437E-4,4.317119E-2,-1.0046009E-1,6.877874E-2,-1.3485529E-1,3.501069E-3,-1.699669E-1,6.9023506E-3,-4.1921586E-2,2.2996608E-2,-1.6335145E-2,-2.970964E-2,3.772843E-3,-1.2611355E-2,-4.3109912E-2],"categories":[],"categories_nodes":[],"categories_segments":[],"categories_sizes":[],"default_left":[0,1,0,1,0,0,1,0,0,0,0,0,0,0,0],"id":58,"left_children":[1,3,5,7,9,11,13,-1,-1,-1,-1,-1,-1,-1,-1],"loss_changes":[2.086888E2,1.5034138E2,1.06444275E2,1.4756232E2,8.19118E1,7.559036E1,7.087631E1,0E0,0E0,0E0,0E0,0E0,0E0,0E0,0E0],"parents":[2147483647,0,0,1,1,2,2,3,3,4,4,5,5,6,6],"right_children":[2,4,6,8,10,12,14,-1,-1,-1,-1,-1,-1,-1,-1],"split_conditions":[6.5488654E-1,6.785677E-1,4.3473324E-1,8.1264657E-1,4.632225E-1,6.43055E-2,6.333819E-1,6.9023506E-3,-4.1921586E-2,2.2996608E-2,-1.6335145E-2,-2.970964E-2,3.772843E-3,-1.2611355E-2,-4.3109912E-2],"split_indices":[8,11,11,9,8,26,9,0,0,0,0,0,0,0,0],"split_type":[0,0,0,0,0,0,0,0,0,0,0,0,0,0,0],"sum_hessian":[4.7649695E4,3.307846E4,1.4571234E4,2.8952748E4,4.1257134E3,5.798635E3,8.772601E3,2.8466846E4,4.859034E2,4.5122263E2,3.6744907E3,5.81734E2,5.216901E3,8.1112314E3,6.613685E2],"tree_param":{"num_deleted":"0","num_feature":"31","num_nodes":"15","size_leaf_vector":"1"}},{"base_weights":[8.825574E-4,-3.8107682E-2,1.0551656E-1,-2.7067223E-1,-1.821022E-2,1.805639E-1,-9.023861E-2,-7.381472E-3,-3.0510258E-2,8.220723E-3,-4.573858E-3,2.7977705E-2,1.1835933E-2,1.2805556E-2,-1.3556172E-2],"categories":[],"categories_nodes":[],"categories_segments":[],"categories_sizes":[],"default_left":[0,0,1,0,0,0,0,0,0,0,0,0,0,0,0],"id":59,"left_children":[1,3,5,7,9,11,13,-1,-1,-1,-1,-1,-1,-1,-1],"loss_changes":[1.9469106E2,1.5827203E2,1.9120135E2,3.5160217E1,1.1963214E2,5.642581E1,5.3504642E1,0E0,0E0,0E0,0E0,0E0,0E0,0E0,0E0],"parents":[2147483647,0,0,1,1,2,2,3,3,4,4,5,5,6,6],"right_children":[2,4,6,8,10,12,14,-1,-1,-1,-1,-1,-1,-1,-1],"split_conditions":[9.766659E-2,2E0,2.7404237E-1,1.62E5,7.496857E-1,7.878E-1,3.056314E-1,-7.381472E-3,-3.0510258E-2,8.220723E-3,-4.573858E-3,2.7977705E-2,1.1835933E-2,1.2805556E-2,-1.3556172E-2],"split_indices":[28,16,9,1,5,5,3,0,0,0,0,0,0,0,0],"split_type":[0,0,0,0,0,0,0,0,0,0,0,0,0,0,0],"sum_hessian":[4.760746E4,3.463508E4,1.2972385E4,2.7022969E3,3.193278E4,9.40292E3,3.569465E3,8.0384796E2,1.898449E3,7.3620635E3,2.4570717E4,2.3378633E3,7.0650566E3,7.3550653E2,2.8339587E3],"tree_param":{"num_deleted":"0","num_feature":"31","num_nodes":"15","size_leaf_vector":"1"}},{"base_weights":[-7.2456955E-4,1.814295E-2,-2.0663391E-1,4.75153E-2,-1.4599647E-1,-4.735879E-2,-3.247356E-1,5.0365883E-3,-3.5930354E-2,-0E0,-2.6454685E-2,1.6395715E-1,-5.6444933E-3,8.799018E-3,-3.333086E-2],"categories":[],"categories_nodes":[],"categories_segments":[],"categories_sizes":[],"default_left":[1,0,0,0,0,0,0,0,0,0,0,0,0,0,0],"id":60,"left_children":[1,3,5,7,9,11,13,-1,-1,-1,-1,-1,-1,-1,-1],"loss_changes":[1.8591927E2,2.0903993E2,7.303464E1,1.5947375E2,1.4809192E2,4.2830517E1,5.3729095E1,0E0,0E0,0E0,0E0,0E0,0E0,0E0,0E0],"parents":[2147483647,0,0,1,1,2,2,3,3,4,4,5,5,6,6],"right_children":[2,4,6,8,10,12,14,-1,-1,-1,-1,-1,-1,-1,-1],"split_conditions":[7.0596564E-1,1E0,5.1369375E-1,2E0,4.7764915E-1,2.4685541E-1,7.8296274E-1,5.0365883E-3,-3.5930354E-2,-0E0,-2.6454685E-2,1.6395715E-1,-5.6444933E-3,8.799018E-3,-3.333086E-2],"split_indices":[10,22,11,14,11,3,7,0,0,0,0,0,0,0,0],"split_type":[0,0,0,0,0,0,0,0,0,0,0,0,0,0,0],"sum_hessian":[4.751981E4,4.350025E4,4.0195579E3,3.69333E4,6.566948E3,1.7364084E3,2.2831494E3,3.618299E4,7.503145E2,3.3695728E3,3.1973757E3,1.1457135E1,1.7249513E3,2.4076526E2,2.0423842E3],"tree_param":{"num_deleted":"0","num_feature":"31","num_nodes":"15","size_leaf_vector":"1"}},{"base_weights":[-0E0,1.4344715E-2,-2.3875758E-1,6.485478E-2,-4.5429084E-2,-3.37008E-1,-8.282089E-2,1.18147945E-2,-8.293427E-4,-1.5218582E-2,-1.1969636E-4,-5.6985468E-2,-2.3585755E-2,-0E0,-4.4330563E-2],"categories":[],"categories_nodes":[],"categories_segments":[],"categories_sizes":[],"default_left":[1,0,0,0,0,0,0,0,0,0,0,0,0,0,0],"id":61,"left_children":[1,3,5,7,9,11,13,-1,-1,-1,-1,-1,-1,-1,-1],"loss_changes":[1.627222E2,1.349865E2,3.835707E1,1.2559028E2,1.1315813E2,2.8582748E1,4.0170227E1,0E0,0E0,0E0,0E0,0E0,0E0,0E0,0E0],"parents":[2147483647,0,0,1,1,2,2,3,3,4,4,5,5,6,6],"right_children":[2,4,6,8,10,12,14,-1,-1,-1,-1,-1,-1,-1,-1],"split_conditions":[6.9661224E-1,8.43E-1,8.953711E-2,4.16E1,8.868837E-2,1.8181819E0,1.859E3,1.18147945E-2,-8.293427E-4,-1.5218582E-2,-1.1969636E-4,-5.6985468E-2,-2.3585755E-2,-0E0,-4.4330563E-2],"split_indices":[9,5,27,0,27,6,17,0,0,0,0,0,0,0,0],"split_type":[0,0,0,0,0,0,0,0,0,0,0,0,0,0,0],"sum_hessian":[4.7358426E4,4.4665137E4,2.6932886E3,2.4271256E4,2.0393883E4,1.6250221E3,1.0682664E3,1.2612548E4,1.1658707E4,5.2059873E3,1.51878955E4,2.7933582E2,1.3456863E3,8.8051953E2,1.8774681E2],"tree_param":{"num_deleted":"0","num_feature":"31","num_nodes":"15","size_leaf_vector":"1"}},{"base_weights":[4.9112416E-3,1.03379674E-1,-2.9154897E-2,1.7040558E-1,-3.1904723E-2,-6.3508555E-2,6.7600854E-2,1.951451E-2,-3.1036E-4,2.7493672E-2,-7.5317733E-3,-1.8469146E-2,-2.7641924E-3,9.794694E-3,-1.0614436E-2],"categories":[],"categories_nodes":[],"categories_segments":[],"categories_sizes":[],"default_left":[0,0,0,0,0,0,1,0,0,0,0,0,0,0,0],"id":62,"left_children":[1,3,5,7,9,11,13,-1,-1,-1,-1,-1,-1,-1,-1],"loss_changes":[1.5948721E2,1.1188823E2,1.1683478E2,7.438779E1,7.243366E1,1.2038882E2,7.4908E1,0E0,0E0,0E0,0E0,0E0,0E0,0E0,0E0],"parents":[2147483647,0,0,1,1,2,2,3,3,4,4,5,5,6,6],"right_children":[2,4,6,8,10,12,14,-1,-1,-1,-1,-1,-1,-1,-1],"split_conditions":[8.3472455E-1,6.437135E-1,9.766659E-2,5.4E1,1.6733167E-1,1.8181819E0,4.1225156E-1,1.951451E-2,-3.1036E-4,2.7493672E-2,-7.5317733E-3,-1.8469146E-2,-2.7641924E-3,9.794694E-3,-1.0614436E-2],"split_indices":[7,8,28,0,10,6,9,0,0,0,0,0,0,0,0],"split_type":[0,0,0,0,0,0,0,0,0,0,0,0,0,0,0],"sum_hessian":[4.7391934E4,1.223366E4,3.5158273E4,8.214837E3,4.0188237E3,2.5998805E4,9.15947E3,6.3827515E3,1.8320852E3,5.241323E2,3.4946914E3,4.6513726E3,2.1347434E4,7.4675156E3,1.691954E3],"tree_param":{"num_deleted":"0","num_feature":"31","num_nodes":"15","size_leaf_vector":"1"}},{"base_weights":[-9.842213E-3,2.8756046E-1,-2.2613129E-2,1.5293984E-1,4.4557464E-1,6.5879286E-3,-1.435262E-1,3.1371478E-2,1.6465147E-3,-0E0,4.5615483E-2,-1.8630313E-3,1.12360185E-2,-7.5550494E-3,-2.4705809E-2],"categories":[],"categories_nodes":[],"categories_segments":[],"categories_sizes":[],"default_left":[0,0,1,0,0,0,1,0,0,0,0,0,0,0,0],"id":63,"left_children":[1,3,5,7,9,11,13,-1,-1,-1,-1,-1,-1,-1,-1],"loss_changes":[1.7723283E2,3.667456E1,1.6063693E2,2.6291021E1,2.7066437E1,1.2269382E2,6.739732E1,0E0,0E0,0E0,0E0,0E0,0E0,0E0,0E0],"parents":[2147483647,0,0,1,1,2,2,3,3,4,4,5,5,6,6],"right_children":[2,4,6,8,10,12,14,-1,-1,-1,-1,-1,-1,-1,-1],"split_conditions":[7.163324E-1,1.505E-1,6.127042E-1,3.84173E-1,3.6031026E-1,3E0,2.9888138E-1,3.1371478E-2,1.6465147E-3,-0E0,4.5615483E-2,-1.8630313E-3,1.12360185E-2,-7.5550494E-3,-2.4705809E-2],"split_indices":[7,4,11,10,9,16,9,0,0,0,0,0,0,0,0],"split_type":[0,0,0,0,0,0,0,0,0,0,0,0,0,0,0],"sum_hessian":[4.714641E4,1.9188607E3,4.5227547E4,1.0597854E3,8.590754E2,3.638351E4,8.844037E3,4.013555E2,6.584299E2,1.21302444E2,7.3777295E2,2.9549484E4,6.834026E3,6.2524194E3,2.591618E3],"tree_param":{"num_deleted":"0","num_feature":"31","num_nodes":"15","size_leaf_vector":"1"}},{"base_weights":[6.102971E-3,-1.1407644E-2,1.8915072E-1,2.0805139E-3,-2.2977565E-1,6.38616E-2,3.7168434E-1,4.309237E-3,-5.446193E-3,-3.2459866E-2,-3.8058974E-3,1.3727155E-2,-1.0622913E-2,3.8408924E-2,2.6437675E-4],"categories":[],"categories_nodes":[],"categories_segments":[],"categories_sizes":[],"default_left":[0,1,0,0,0,0,0,0,0,0,0,0,0,0,0],"id":64,"left_children":[1,3,5,7,9,11,13,-1,-1,-1,-1,-1,-1,-1,-1],"loss_changes":[1.5307912E2,1.2882796E2,9.2367874E1,1.2148922E2,6.288481E1,4.2528786E1,3.6553543E1,0E0,0E0,0E0,0E0,0E0,0E0,0E0,0E0],"parents":[2147483647,0,0,1,1,2,2,3,3,4,4,5,5,6,6],"right_children":[2,4,6,8,10,12,14,-1,-1,-1,-1,-1,-1,-1,-1],"split_conditions":[1.10866696E-1,7.232564E-1,9.547468E-2,6.223159E-1,2E0,2.461E-2,3.709013E-1,4.309237E-3,-5.446193E-3,-3.2459866E-2,-3.8058974E-3,1.3727155E-2,-1.0622913E-2,3.8408924E-2,2.6437675E-4],"split_indices":[24,10,26,8,23,15,2,0,0,0,0,0,0,0,0],"split_type":[0,0,0,0,0,0,0,0,0,0,0,0,0,0,0],"sum_hessian":[4.737456E4,4.32038E4,4.170758E3,4.066058E4,2.5432249E3,2.4956777E3,1.67508E3,2.3526523E4,1.7134055E4,1.4383601E3,1.1048647E3,1.6906913E3,8.0498645E2,1.4109633E3,2.6411673E2],"tree_param":{"num_deleted":"0","num_feature":"31","num_nodes":"15","size_leaf_vector":"1"}},{"base_weights":[8.097407E-3,1.0244523E-1,-2.7600925E-2,4.162766E-1,8.329173E-2,3.1317177E-1,-3.76843E-2,4.5938358E-2,1.1308909E-2,-1.0885535E-3,1.0857767E-2,9.140819E-4,3.7620265E-2,-1.8233735E-2,-1.64728E-3],"categories":[],"categories_nodes":[],"categories_segments":[],"categories_sizes":[],"default_left":[0,0,0,0,0,0,0,0,0,0,0,0,0,0,0],"id":65,"left_children":[1,3,5,7,9,11,13,-1,-1,-1,-1,-1,-1,-1,-1],"loss_changes":[1.5976283E2,7.487695E1,1.1577643E2,1.7528717E1,4.7720108E1,3.017315E1,1.05405716E2,0E0,0E0,0E0,0E0,0E0,0E0,0E0,0E0],"parents":[2147483647,0,0,1,1,2,2,3,3,4,4,5,5,6,6],"right_children":[2,4,6,8,10,12,14,-1,-1,-1,-1,-1,-1,-1,-1],"split_conditions":[3.34018E-1,2.3208275E-2,1.4843227E-1,1.9689E-2,1.125E5,2.72E1,2E0,4.5938358E-2,1.1308909E-2,-1.0885535E-3,1.0857767E-2,9.140819E-4,3.7620265E-2,-1.8233735E-2,-1.64728E-3],"split_indices":[10,10,9,15,1,0,16,0,0,0,0,0,0,0,0],"split_type":[0,0,0,0,0,0,0,0,0,0,0,0,0,0,0],"sum_hessian":[4.728084E4,1.3032064E4,3.4248773E4,7.288222E2,1.2303242E4,9.645562E2,3.328422E4,5.165368E2,2.122854E2,3.570766E3,8.732476E3,2.798878E2,6.846684E2,3.3225745E3,2.9961645E4],"tree_param":{"num_deleted":"0","num_feature":"31","num_nodes":"15","size_leaf_vector":"1"}},{"base_weights":[8.896728E-3,3.2665774E-2,-1.20918185E-1,-0E0,1.3476914E-1,-2.3283698E-1,-3.216234E-2,-7.755182E-3,3.1294662E-3,6.0245655E-3,2.366764E-2,-1.8867346E-2,-7.2274454E-2,-8.855623E-3,1.2137156E-2],"categories":[],"categories_nodes":[],"categories_segments":[],"categories_sizes":[],"default_left":[0,0,0,0,0,0,0,0,0,0,0,0,0,0,0],"id":66,"left_children":[1,3,5,7,9,11,13,-1,-1,-1,-1,-1,-1,-1,-1],"loss_changes":[1.4545952E2,1.3331488E2,7.0494354E1,9.475647E1,8.378363E1,2.794838E1,4.7268112E1,0E0,0E0,0E0,0E0,0E0,0E0,0E0,0E0],"parents":[2147483647,0,0,1,1,2,2,3,3,4,4,5,5,6,6],"right_children":[2,4,6,8,10,12,14,-1,-1,-1,-1,-1,-1,-1,-1],"split_conditions":[1E0,9.6404016E-2,9.546012E-2,2.2722309E0,8.219603E-2,7.994966E-1,9.766659E-2,-7.755182E-3,3.1294662E-3,6.0245655E-3,2.366764E-2,-1.8867346E-2,-7.2274454E-2,-8.855623E-3,1.2137156E-2],"split_indices":[22,26,25,6,28,2,28,0,0,0,0,0,0,0,0],"split_type":[0,0,0,0,0,0,0,0,0,0,0,0,0,0,0],"sum_hessian":[4.7339758E4,4.005841E4,7.2813477E3,3.0364969E4,9.693443E3,3.18595E3,4.0953975E3,8.712784E3,2.1652184E4,6.5120303E3,3.1814128E3,3.0987087E3,8.724124E1,2.9498562E3,1.1455411E3],"tree_param":{"num_deleted":"0","num_feature":"31","num_nodes":"15","size_leaf_vector":"1"}},{"base_weights":[4.0874803E-3,1.300983E-2,-3.3908036E-1,1.2123128E-1,-1.2696241E-2,-4.102388E-1,1.2835641E-1,3.396406E-2,8.61173E-3,-4.56357E-4,-2.891176E-2,-4.082646E-2,1.0430579E-2,1.0446057E-1,-6.287854E-3],"categories":[],"categories_nodes":[],"categories_segments":[],"categories_sizes":[],"default_left":[1,1,0,0,0,0,0,0,0,0,0,0,0,0,0],"id":67,"left_children":[1,3,5,7,9,11,13,-1,-1,-1,-1,-1,-1,-1,-1],"loss_changes":[1.4210365E2,1.2864568E2,4.103839E1,5.17986E1,8.56447E1,3.130954E1,3.7765816E1,0E0,0E0,0E0,0E0,0E0,0E0,0E0,0E0],"parents":[2147483647,0,0,1,1,2,2,3,3,4,4,5,5,6,6],"right_children":[2,4,6,8,10,12,14,-1,-1,-1,-1,-1,-1,-1,-1],"split_conditions":[7.862666E-1,2.586948E-1,1.06545866E-1,2.3208275E-2,2E0,8.299568E-2,1.1017147E-1,3.396406E-2,8.61173E-3,-4.56357E-4,-2.891176E-2,-4.082646E-2,1.0430579E-2,1.0446057E-1,-6.287854E-3],"split_indices":[11,10,24,10,14,29,24,0,0,0,0,0,0,0,0],"split_type":[0,0,0,0,0,0,0,0,0,0,0,0,0,0,0],"sum_hessian":[4.7148055E4,4.5972934E4,1.1751211E3,8.875743E3,3.709719E4,1.0327191E3,1.4240196E2,7.017193E2,8.174024E3,3.6254754E4,8.4243695E2,9.505393E2,8.217985E1,2.814018E1,1.1426179E2],"tree_param":{"num_deleted":"0","num_feature":"31","num_nodes":"15","size_leaf_vector":"1"}},{"base_weights":[3.4859285E-3,2.2880119E-1,-9.895173E-3,3.4804553E-2,3.1532815E-1,6.487398E-2,-4.4238612E-2,3.3889733E-2,-2.942321E-3,3.14604E-2,-0E0,6.599964E-3,-3.7114162E-2,-1.7001061E-3,-1.7395843E-2],"categories":[],"categories_nodes":[],"categories_segments":[],"categories_sizes":[],"default_left":[0,0,0,0,0,0,0,0,0,0,0,0,0,0,0],"id":68,"left_children":[1,3,5,7,9,11,13,-1,-1,-1,-1,-1,-1,-1,-1],"loss_changes":[1.4365942E2,4.242769E1,1.1405922E2,2.2672573E1,2.2931168E1,6.5390396E1,1.15178535E2,0E0,0E0,0E0,0E0,0E0,0E0,0E0,0E0],"parents":[2147483647,0,0,1,1,2,2,3,3,4,4,5,5,6,6],"right_children":[2,4,6,8,10,12,14,-1,-1,-1,-1,-1,-1,-1,-1],"split_conditions":[1.9434394E-1,2.72E1,4.0140742E-1,6.417478E-2,6.582019E-1,7.2508E-2,1E0,3.3889733E-2,-2.942321E-3,3.14604E-2,-0E0,6.599964E-3,-3.7114162E-2,-1.7001061E-3,-1.7395843E-2],"split_indices":[9,0,11,24,10,15,22,0,0,0,0,0,0,0,0],"split_type":[0,0,0,0,0,0,0,0,0,0,0,0,0,0,0],"sum_hessian":[4.714613E4,2.6719712E3,4.447416E4,8.488425E2,1.8231288E3,1.3934898E4,3.0539262E4,1.5507016E2,6.9377234E2,1.6026962E3,2.2043256E2,1.3667624E4,2.672742E2,2.629971E4,4.2395503E3],"tree_param":{"num_deleted":"0","num_feature":"31","num_nodes":"15","size_leaf_vector":"1"}},{"base_weights":[3.47129E-3,-5.7105165E-2,5.8452383E-2,-1.6478206E-1,-1.3394949E-2,9.511114E-2,-3.3040367E-2,-2.3361491E-2,1.1567262E-3,-3.588204E-4,-3.925094E-2,4.0522767E-3,1.6904362E-2,-3.548601E-2,-0E0],"categories":[],"categories_nodes":[],"categories_segments":[],"categories_sizes":[],"default_left":[0,0,1,0,0,0,0,0,0,0,0,0,0,0,0],"id":69,"left_children":[1,3,5,7,9,11,13,-1,-1,-1,-1,-1,-1,-1,-1],"loss_changes":[1.5665016E2,1.0380394E2,8.332151E1,1.15885925E2,6.100167E1,8.2432785E1,8.4478004E1,0E0,0E0,0E0,0E0,0E0,0E0,0E0,0E0],"parents":[2147483647,0,0,1,1,2,2,3,3,4,4,5,5,6,6],"right_children":[2,4,6,8,10,12,14,-1,-1,-1,-1,-1,-1,-1,-1],"split_conditions":[9.063101E-2,2.357625E0,3.194622E-1,7.482316E-2,2E0,8.356331E-2,1E0,-2.3361491E-2,1.1567262E-3,-3.588204E-4,-3.925094E-2,4.0522767E-3,1.6904362E-2,-3.548601E-2,-0E0],"split_indices":[26,6,9,26,14,28,14,0,0,0,0,0,0,0,0],"split_type":[0,0,0,0,0,0,0,0,0,0,0,0,0,0,0],"sum_hessian":[4.7031383E4,2.2317143E4,2.4714242E4,6.397931E3,1.5919211E4,1.7698559E4,7.0156846E3,4.1165073E3,2.281424E3,1.559854E4,3.206706E2,1.1782604E4,5.915954E3,5.68362E2,6.4473228E3],"tree_param":{"num_deleted":"0","num_feature":"31","num_nodes":"15","size_leaf_vector":"1"}},{"base_weights":[-9.079759E-3,7.812056E-2,-3.889122E-2,9.21475E-2,-2.9679814E-1,2.2657803E-1,-4.939814E-2,9.089474E-3,-3.0092342E-2,-4.903446E-2,9.028445E-3,2.500118E-2,-9.613321E-3,-3.742992E-3,-3.4278613E-2],"categories":[],"categories_nodes":[],"categories_segments":[],"categories_sizes":[],"default_left":[0,0,0,0,0,0,0,0,0,0,0,0,0,0,0],"id":70,"left_children":[1,3,5,7,9,11,13,-1,-1,-1,-1,-1,-1,-1,-1],"loss_changes":[1.21508194E2,6.1038597E1,9.631445E1,5.294684E1,4.5679016E1,2.6239426E1,7.622015E1,0E0,0E0,0E0,0E0,0E0,0E0,0E0,0E0],"parents":[2147483647,0,0,1,1,2,2,3,3,4,4,5,5,6,6],"right_children":[2,4,6,8,10,12,14,-1,-1,-1,-1,-1,-1,-1,-1],"split_conditions":[8.256301E-1,8.384836E-1,2.5940138E-1,2E0,8.356331E-2,1.834E3,2E0,9.089474E-3,-3.0092342E-2,-4.903446E-2,9.028445E-3,2.500118E-2,-9.613321E-3,-3.742992E-3,-3.4278613E-2],"split_indices":[7,8,3,21,28,17,14,0,0,0,0,0,0,0,0],"split_type":[0,0,0,0,0,0,0,0,0,0,0,0,0,0,0],"sum_hessian":[4.684614E4,1.1875977E4,3.4970164E4,1.14654795E4,4.1049643E2,1.3062932E3,3.366387E4,1.1197805E4,2.6767517E2,2.5927557E2,1.5122084E2,1.1340397E3,1.7225352E2,3.301052E4,6.5335004E2],"tree_param":{"num_deleted":"0","num_feature":"31","num_nodes":"15","size_leaf_vector":"1"}},{"base_weights":[-7.8471E-3,9.763527E-2,-3.299314E-2,1.4736117E-1,-2.791618E-2,-1.2537567E-2,-1.63248E-1,-5.968786E-3,1.6964974E-2,-3.0821761E-2,2.3455254E-3,1.3627612E-2,-2.6477566E-3,-3.9012745E-2,-1.1803501E-2],"categories":[],"categories_nodes":[],"categories_segments":[],"categories_sizes":[],"default_left":[0,1,0,0,0,0,0,0,0,0,0,0,0,0,0],"id":71,"left_children":[1,3,5,7,9,11,13,-1,-1,-1,-1,-1,-1,-1,-1],"loss_changes":[1.2387215E2,5.682434E1,9.97655E1,6.360417E1,4.6193497E1,9.511459E1,3.7777985E1,0E0,0E0,0E0,0E0,0E0,0E0,0E0,0E0],"parents":[2147483647,0,0,1,1,2,2,3,3,4,4,5,5,6,6],"right_children":[2,4,6,8,10,12,14,-1,-1,-1,-1,-1,-1,-1,-1],"split_conditions":[2.586948E-1,2.0240743E-1,3.2561E-2,5.4574456E-2,2.82E1,2.5473744E-1,8.2775906E-2,-5.968786E-3,1.6964974E-2,-3.0821761E-2,2.3455254E-3,1.3627612E-2,-2.6477566E-3,-3.9012745E-2,-1.1803501E-2],"split_indices":[10,9,15,26,0,9,30,0,0,0,0,0,0,0,0],"split_type":[0,0,0,0,0,0,0,0,0,0,0,0,0,0,0],"sum_hessian":[4.6869492E4,8.969407E3,3.7900086E4,6.464297E3,2.5051106E3,3.280193E4,5.0981553E3,1.094428E3,5.369869E3,3.8138654E2,2.1237239E3,3.071813E3,2.9730115E4,4.618337E2,4.6363213E3],"tree_param":{"num_deleted":"0","num_feature":"31","num_nodes":"15","size_leaf_vector":"1"}},{"base_weights":[-2.7546403E-3,-4.105321E-2,7.271631E-2,5.4335944E-2,-9.00698E-2,5.9345912E-2,3.939337E-1,5.734186E-3,-4.896292E-2,-1.0390546E-2,2.2646878E-3,6.469276E-3,-2.0031018E-2,3.9786655E-2,-6.0376976E-2],"categories":[],"categories_nodes":[],"categories_segments":[],"categories_sizes":[],"default_left":[0,0,0,0,0,1,0,0,0,0,0,0,0,0,0],"id":72,"left_children":[1,3,5,7,9,11,13,-1,-1,-1,-1,-1,-1,-1,-1],"loss_changes":[1.3534512E2,1.4600375E2,6.440904E1,6.550125E1,6.711696E1,5.9844757E1,3.6084595E1,0E0,0E0,0E0,0E0,0E0,0E0,0E0,0E0],"parents":[2147483647,0,0,1,1,2,2,3,3,4,4,5,5,6,6],"right_children":[2,4,6,8,10,12,14,-1,-1,-1,-1,-1,-1,-1,-1],"split_conditions":[8.065853E-2,4.1359675E-1,1.1596555E-1,7.2508E-2,3E0,7.463002E-1,9.37E-1,5.734186E-3,-4.896292E-2,-1.0390546E-2,2.2646878E-3,6.469276E-3,-2.0031018E-2,3.9786655E-2,-6.0376976E-2],"split_indices":[28,11,26,15,16,11,5,0,0,0,0,0,0,0,0],"split_type":[0,0,0,0,0,0,0,0,0,0,0,0,0,0,0],"sum_hessian":[4.6901098E4,3.117349E4,1.5727606E4,1.0533483E4,2.0640008E4,1.511981E4,6.0779694E2,1.0362606E4,1.7087639E2,1.6688887E4,3.9511216E3,1.4436053E4,6.8375635E2,5.8314233E2,2.4654604E1],"tree_param":{"num_deleted":"0","num_feature":"31","num_nodes":"15","size_leaf_vector":"1"}},{"base_weights":[3.255637E-3,7.806038E-2,-3.2830678E-2,8.638922E-2,-3.6313364E-1,-8.091915E-3,-1.8806298E-1,-4.829979E-4,1.0556098E-2,-4.7542483E-2,4.4529565E-4,6.3283386E-4,-1.700957E-2,-1.0017712E-2,-3.5961457E-2],"categories":[],"categories_nodes":[],"categories_segments":[],"categories_sizes":[],"default_left":[0,0,0,0,0,1,0,0,0,0,0,0,0,0,0],"id":73,"left_children":[1,3,5,7,9,11,13,-1,-1,-1,-1,-1,-1,-1,-1],"loss_changes":[1.2657708E2,5.4246544E1,1.1957381E2,4.6841187E1,2.1080116E1,7.809519E1,6.659871E1,0E0,0E0,0E0,0E0,0E0,0E0,0E0,0E0],"parents":[2147483647,0,0,1,1,2,2,3,3,4,4,5,5,6,6],"right_children":[2,4,6,8,10,12,14,-1,-1,-1,-1,-1,-1,-1,-1],"split_conditions":[4.0487838E-1,7.2508E-2,1E0,8.868837E-2,1.515E3,6.4696616E-1,1.541E3,-4.829979E-4,1.0556098E-2,-4.7542483E-2,4.4529565E-4,6.3283386E-4,-1.700957E-2,-1.0017712E-2,-3.5961457E-2],"split_indices":[11,15,22,27,17,9,17,0,0,0,0,0,0,0,0],"split_type":[0,0,0,0,0,0,0,0,0,0,0,0,0,0,0],"sum_hessian":[4.6774348E4,1.5283798E4,3.149055E4,1.5016018E4,2.6778033E2,2.7200336E4,4.2902144E3,3.9467422E3,1.1069275E4,1.9379364E2,7.3986694E1,2.509051E4,2.1098267E3,3.2293608E3,1.0608536E3],"tree_param":{"num_deleted":"0","num_feature":"31","num_nodes":"15","size_leaf_vector":"1"}},{"base_weights":[-1.2264927E-3,3.8029205E-2,-5.876335E-2,-2.135971E-2,1.0386873E-1,-1.2562153E-2,-1.6308369E-1,-1.4170662E-2,3.1603223E-3,1.4136485E-2,4.6883427E-4,6.8236673E-3,-9.87568E-3,-1.9709371E-2,2.1523184E-3],"categories":[],"categories_nodes":[],"categories_segments":[],"categories_sizes":[],"default_left":[0,0,0,0,0,1,0,0,0,0,0,0,0,0,0],"id":74,"left_children":[1,3,5,7,9,11,13,-1,-1,-1,-1,-1,-1,-1,-1],"loss_changes":[1.0572002E2,1.08937744E2,9.0498276E1,1.16660706E2,7.237604E1,1.1871701E2,6.7159256E1,0E0,0E0,0E0,0E0,0E0,0E0,0E0,0E0],"parents":[2147483647,0,0,1,1,2,2,3,3,4,4,5,5,6,6],"right_children":[2,4,6,8,10,12,14,-1,-1,-1,-1,-1,-1,-1,-1],"split_conditions":[3.9813006E-1,1.395E5,4.21E1,2.62372E0,9.154156E-1,1.4843227E-1,8.182608E-2,-1.4170662E-2,3.1603223E-3,1.4136485E-2,4.6883427E-4,6.8236673E-3,-9.87568E-3,-1.9709371E-2,2.1523184E-3],"split_indices":[3,1,0,6,7,9,28,0,0,0,0,0,0,0,0],"split_type":[0,0,0,0,0,0,0,0,0,0,0,0,0,0,0],"sum_hessian":[4.6743188E4,2.7714252E4,1.9028934E4,1.4515637E4,1.3198616E4,1.3234169E4,5.7947637E3,4.258891E3,1.0256745E4,8.343028E3,4.855588E3,6.9124683E3,6.321701E3,4.4083325E3,1.3864314E3],"tree_param":{"num_deleted":"0","num_feature":"31","num_nodes":"15","size_leaf_vector":"1"}},{"base_weights":[-3.1553884E-3,4.1350808E-2,-5.379689E-2,4.915517E-2,-5.0265425E-1,-4.4725634E-2,-5.6165576E-1,-1.2524207E-2,5.7787015E-3,-6.2477496E-4,-6.095125E-2,-9.847697E-4,-1.478218E-2,-4.70288E-3,-6.6410914E-2],"categories":[],"categories_nodes":[],"categories_segments":[],"categories_sizes":[],"default_left":[0,1,0,0,0,0,0,0,0,0,0,0,0,0,0],"id":75,"left_children":[1,3,5,7,9,11,13,-1,-1,-1,-1,-1,-1,-1,-1],"loss_changes":[1.05302246E2,1.0203982E2,9.6735E1,7.616495E1,2.6789635E1,8.764313E1,3.0600014E1,0E0,0E0,0E0,0E0,0E0,0E0,0E0,0E0],"parents":[2147483647,0,0,1,1,2,2,3,3,4,4,5,5,6,6],"right_children":[2,4,6,8,10,12,14,-1,-1,-1,-1,-1,-1,-1,-1],"split_conditions":[5.726825E-1,8.1264657E-1,2E0,1E0,2E0,6.469733E-1,8.441707E-2,-1.2524207E-2,5.7787015E-3,-6.2477496E-4,-6.095125E-2,-9.847697E-4,-1.478218E-2,-4.70288E-3,-6.6410914E-2],"split_indices":[11,9,14,14,12,10,2,0,0,0,0,0,0,0,0],"split_type":[0,0,0,0,0,0,0,0,0,0,0,0,0,0,0],"sum_hessian":[4.6682605E4,2.4773637E4,2.1908967E4,2.4435803E4,3.3783307E2,2.1537895E4,3.7107327E2,1.8976698E3,2.2538133E4,1.03351654E2,2.3448141E2,1.6965947E4,4.5719473E3,1.1156679E2,2.5950647E2],"tree_param":{"num_deleted":"0","num_feature":"31","num_nodes":"15","size_leaf_vector":"1"}},{"base_weights":[-1.952988E-4,7.6141864E-2,-3.4054335E-2,5.423333E-1,6.1757285E-2,-1.0155939E-1,1.1679045E-2,6.1133612E-2,7.2935596E-3,6.5082856E-3,-4.3024965E-2,-7.7853375E-3,-4.6389E-2,-2.032461E-2,2.7000678E-3],"categories":[],"categories_nodes":[],"categories_segments":[],"categories_sizes":[],"default_left":[0,0,0,0,1,0,0,0,0,0,0,0,0,0,0],"id":76,"left_children":[1,3,5,7,9,11,13,-1,-1,-1,-1,-1,-1,-1,-1],"loss_changes":[1.20343925E2,9.156532E1,1.0063277E2,2.3339333E1,8.928645E1,6.959177E1,8.702903E1,0E0,0E0,0E0,0E0,0E0,0E0,0E0,0E0],"parents":[2147483647,0,0,1,1,2,2,3,3,4,4,5,5,6,6],"right_children":[2,4,6,8,10,12,14,-1,-1,-1,-1,-1,-1,-1,-1],"split_conditions":[7.853E-1,7.163324E-1,1.44E5,5.755708E-1,8.0274546E-1,6.52E1,8.2775906E-2,6.1133612E-2,7.2935596E-3,6.5082856E-3,-4.3024965E-2,-7.7853375E-3,-4.6389E-2,-2.032461E-2,2.7000678E-3],"split_indices":[5,7,1,8,11,0,30,0,0,0,0,0,0,0,0],"split_type":[0,0,0,0,0,0,0,0,0,0,0,0,0,0,0],"sum_hessian":[4.667279E4,1.4277924E4,3.2394863E4,4.129606E2,1.3864963E4,1.3144383E4,1.925048E4,2.9935028E2,1.1361031E2,1.3579105E4,2.858574E2,1.2763272E4,3.8111026E2,1.3703594E3,1.7880121E4],"tree_param":{"num_deleted":"0","num_feature":"31","num_nodes":"15","size_leaf_vector":"1"}},{"base_weights":[6.778986E-3,1.3825804E-2,-3.2634735E-1,-3.2859202E-2,5.275097E-2,3.526566E-1,-3.9470848E-1,-8.157956E-3,1.6860251E-3,3.3050254E-3,1.9073384E-2,-4.073193E-3,6.2669516E-2,-0E0,-4.2750735E-2],"categories":[],"categories_nodes":[],"categories_segments":[],"categories_sizes":[],"default_left":[0,0,0,0,0,0,0,0,0,0,0,0,0,0,0],"id":77,"left_children":[1,3,5,7,9,11,13,-1,-1,-1,-1,-1,-1,-1,-1],"loss_changes":[1.07475914E2,8.32901E1,4.425614E1,6.483335E1,6.0728104E1,1.5663519E1,2.8375977E1,0E0,0E0,0E0,0E0,0E0,0E0,0E0,0E0],"parents":[2147483647,0,0,1,1,2,2,3,3,4,4,5,5,6,6],"right_children":[2,4,6,8,10,12,14,-1,-1,-1,-1,-1,-1,-1,-1],"split_conditions":[2E0,1.57E-1,1.3510601E-1,1.665E5,1.10866696E-1,7.823657E-2,2E0,-8.157956E-3,1.6860251E-3,3.3050254E-3,1.9073384E-2,-4.073193E-3,6.2669516E-2,-0E0,-4.2750735E-2],"split_indices":[14,4,11,1,24,29,17,0,0,0,0,0,0,0,0],"split_type":[0,0,0,0,0,0,0,0,0,0,0,0,0,0,0],"sum_hessian":[4.6705145E4,4.575798E4,9.47164E2,2.072434E4,2.503364E4,7.737363E1,8.6979034E2,9.708593E3,1.1015747E4,